svm_type c_svc
kernel_type rbf
gamma 0.8
nr_class 4
total_sv 36
rho -35.95341248633542 -51.89970546233964 -0.9293076355079011 1.6383652087142515 32.07565718153831 0.08035028274704005
label 4 2 3 1
nr_sv 12 11 6 7
SV
9757.073606608034 0.0 0.0 1:0.294901 2:0.280778 3:0.1521931 4:0.0903997 5:0.0436692 6:0.0565158 7:0.0322729 8:0.0493258 
0.0 1341.4509585351832 0.0 1:0.1828234 2:0.3213512 3:0.2453206 4:0.0970581 5:0.0476138 6:0.0408117 7:0.0363121 8:0.0287847 
2399.25622107923 2344.8333770349013 0.0 1:0.3182113 2:0.2319122 3:0.1289758 4:0.0823737 5:0.0546939 6:0.0592632 7:0.060678 8:0.0639156 
0.0 3636.1269607641343 0.0 1:0.3069588 2:0.1661067 3:0.1168267 4:0.1083864 5:0.1015803 6:0.0892106 7:0.0550147 8:0.0559716 
0.0 10000.0 0.0 1:0.2852468 2:0.2028017 3:0.1058 4:0.0973235 5:0.0815042 6:0.0928125 7:0.062647 8:0.0719063 
2582.1297133202506 0.0 1356.6183359714596 1:0.3664814 2:0.1496851 3:0.0859968 4:0.0708161 5:0.0742648 6:0.079873 7:0.0921795 8:0.0807335 
0.0 1766.0784347297244 0.0 1:0.1098212 2:0.1244439 3:0.2746791 4:0.2093383 5:0.0862725 6:0.045077 7:0.0747439 8:0.0756446 
0.0 1186.2147113258056 0.0 1:0.2613823 2:0.2610645 3:0.2016528 4:0.100892 5:0.0462576 6:0.0546865 7:0.0437912 8:0.0303555 
2703.9462495593466 0.0 866.3360920973299 1:0.4643624 2:0.1159732 3:0.1154382 4:0.0944076 5:0.0515678 6:0.070692 7:0.055977 8:0.031616 
10000.0 0.0 0.0 1:0.3419015 2:0.2180998 3:0.1943649 4:0.0843864 5:0.0394307 6:0.0672742 7:0.0380376 8:0.0165623 
143.62143642506575 1708.2089947307702 0.0 1:0.1840278 2:0.2435592 3:0.1310198 4:0.0975668 5:0.0445285 6:0.1522858 7:0.1145351 8:0.032558 
10000.0 0.0 0.0 1:0.2603312 2:0.2755715 3:0.1678683 4:0.065239 5:0.0559861 6:0.0800718 7:0.0634638 8:0.031498 
-6218.922349725025 0.0 135.9947695150518 1:0.3310016 2:0.2832054 3:0.1166524 4:0.1008176 5:0.0433243 6:0.0453615 7:0.0409097 8:0.0388164 
-3136.2834419098303 0.0 0.0 1:0.3016586 2:0.3225371 3:0.190163 4:0.0631458 5:0.0324505 6:0.0349446 7:0.0294199 8:0.0257635 
-0.0 0.0 883.0405123934453 1:0.4259259 2:0.2196906 3:0.103784 4:0.0655798 5:0.0556372 6:0.0573263 7:0.0379048 8:0.0341947 
-4865.727228426801 0.0 0.0 1:0.4231237 2:0.1662017 3:0.0903645 4:0.0909521 5:0.0499269 6:0.0501109 7:0.0762782 8:0.0530919 
-0.0 0.0 9960.89429927222 1:0.4976883 2:0.1667971 3:0.0831383 4:0.0566608 5:0.0277676 6:0.043431 7:0.0661075 8:0.0585061 
-0.0 0.0 10000.0 1:0.4398709 2:0.1863425 3:0.1220462 4:0.0576868 5:0.0261786 6:0.0577969 7:0.0472472 8:0.062904 
-0.0 0.0 10000.0 1:0.4838439 2:0.1614496 3:0.1210326 4:0.0371701 5:0.0351567 6:0.0467701 7:0.0473725 8:0.0672237 
-10000.0 454.03034866329676 0.0 1:0.3058319 2:0.2288529 3:0.1558779 4:0.0866272 5:0.0507957 6:0.0907241 7:0.0482045 8:0.0331522 
-0.0 0.0 5274.727423197676 1:0.3411293 2:0.2258267 3:0.1231586 4:0.0648976 5:0.0511072 6:0.0876336 7:0.0658759 8:0.0404337 
-3365.0942069302623 0.0 0.0 1:0.3096928 2:0.2526609 3:0.1681409 4:0.0745879 5:0.0459565 6:0.0687356 7:0.047748 8:0.0325221 
-10000.0 152.3362384574939 0.0 1:0.2758915 2:0.2280568 3:0.2070975 4:0.0601165 5:0.0516641 6:0.0864564 7:0.0525163 8:0.0382432 
-9472.788325097443 -0.0 0.0 1:0.2392892 2:0.2389927 3:0.146765 4:0.0933314 5:0.0644398 6:0.0852475 7:0.0659419 8:0.066024 
-10000.0 -239.988738285448 175.21125765497712 1:0.3245161 2:0.176711 3:0.1134274 4:0.1038457 5:0.0772765 6:0.0858383 7:0.0575102 8:0.0609055 
-0.0 -366.3778488353427 0.0 1:0.2422392 2:0.248412 3:0.1812845 4:0.0747437 5:0.0730605 6:0.0795503 7:0.0443767 8:0.0563614 
-719.0372692226362 -0.0 0.0 1:0.1064471 2:0.2006813 3:0.163378 4:0.1883694 5:0.094457 6:0.0771773 7:0.0893136 8:0.0802147 
-1305.7493501842478 -0.0 0.0 1:0.0826773 2:0.1895752 3:0.2473949 4:0.1855849 5:0.1309743 6:0.0712873 7:0.0454274 8:0.0471512 
-485.33849261618917 -0.0 0.0 1:0.1557215 2:0.2516615 3:0.2110729 4:0.069724 5:0.0650252 6:0.1098273 7:0.1011113 8:0.0359122 
-0.0 -10000.0 -0.0 1:0.4385149 2:0.2197919 3:0.1128086 4:0.0585599 5:0.0237315 6:0.0381919 7:0.047763 8:0.0606935 
-1132.0942372091831 -3444.6205909701525 -10.262264149665304 1:0.4266328 2:0.129328 3:0.0693694 4:0.0820016 5:0.058239 6:0.0790573 7:0.0874789 8:0.0679291 
-653.5865738734452 -0.0 -164.9489935053118 1:0.3787725 2:0.1880673 3:0.1191293 4:0.0738844 5:0.0438698 6:0.0482768 7:0.0617951 8:0.0862236 
-0.0 -4450.6948858108535 -0.0 1:0.4374227 2:0.241936 3:0.105091 4:0.0439451 5:0.0308982 6:0.0365269 7:0.0445091 8:0.0596976 
-324.2184025755598 -0.0 -0.0 1:0.4409074 2:0.0709685 3:0.0889024 4:0.0604392 5:0.0790111 6:0.0920887 7:0.071358 8:0.0963483 
-0.0 -8359.34152759738 -0.0 1:0.5264874 2:0.1066914 3:0.1349024 4:0.0391101 5:0.0259784 6:0.0499958 7:0.0438636 8:0.0729959 
-113.0552144106015 -10000.0 -0.0 1:0.4217333 2:0.1943597 3:0.1035775 4:0.0509922 5:0.0426305 6:0.0777698 7:0.0623315 8:0.0466186 
