svm_type c_svc
kernel_type rbf
gamma 0.1
nr_class 4
total_sv 57
rho -0.2155780792236328 -1.0441511869430542 0.04180752657424192 0.010970234870910645 0.2510497570037842 0.10861754417419434
label 4 2 3 1
nr_sv 15 17 14 11
SV
100.0 100.0 0.0 1:0.2675738 2:0.2893131 3:0.1403921 4:0.1040491 5:0.0446787 6:0.0518592 7:0.0522017 8:0.0499942 
100.0 100.0 20.630251585425356 1:0.294901 2:0.280778 3:0.1521931 4:0.0903997 5:0.0436692 6:0.0565158 7:0.0322729 8:0.0493258 
0.0 100.0 0.0 1:0.1828234 2:0.3213512 3:0.2453206 4:0.0970581 5:0.0476138 6:0.0408117 7:0.0363121 8:0.0287847 
0.0 100.0 0.0 1:0.1828234 2:0.3213512 3:0.2453206 4:0.0970581 5:0.0476138 6:0.0408117 7:0.0363121 8:0.0287847 
100.0 100.0 100.0 1:0.3182113 2:0.2319122 3:0.1289758 4:0.0823737 5:0.0546939 6:0.0592632 7:0.060678 8:0.0639156 
100.0 100.0 100.0 1:0.3069588 2:0.1661067 3:0.1168267 4:0.1083864 5:0.1015803 6:0.0892106 7:0.0550147 8:0.0559716 
100.0 100.0 100.0 1:0.2852468 2:0.2028017 3:0.1058 4:0.0973235 5:0.0815042 6:0.0928125 7:0.062647 8:0.0719063 
100.0 100.0 100.0 1:0.3664814 2:0.1496851 3:0.0859968 4:0.0708161 5:0.0742648 6:0.079873 7:0.0921795 8:0.0807335 
0.0 100.0 0.0 1:0.1098212 2:0.1244439 3:0.2746791 4:0.2093383 5:0.0862725 6:0.045077 7:0.0747439 8:0.0756446 
100.0 100.0 0.0 1:0.2613823 2:0.2610645 3:0.2016528 4:0.100892 5:0.0462576 6:0.0546865 7:0.0437912 8:0.0303555 
100.0 100.0 0.0 1:0.2706759 2:0.2786476 3:0.194796 4:0.1162731 5:0.0338419 6:0.0447942 7:0.0375487 8:0.0235033 
100.0 0.0 100.0 1:0.4643624 2:0.1159732 3:0.1154382 4:0.0944076 5:0.0515678 6:0.070692 7:0.055977 8:0.031616 
100.0 10.826605410625191 100.0 1:0.3419015 2:0.2180998 3:0.1943649 4:0.0843864 5:0.0394307 6:0.0672742 7:0.0380376 8:0.0165623 
0.0 100.0 0.0 1:0.1840278 2:0.2435592 3:0.1310198 4:0.0975668 5:0.0445285 6:0.1522858 7:0.1145351 8:0.032558 
100.0 100.0 0.0 1:0.2603312 2:0.2755715 3:0.1678683 4:0.065239 5:0.0559861 6:0.0800718 7:0.0634638 8:0.031498 
-100.0 100.0 0.0 1:0.3310016 2:0.2832054 3:0.1166524 4:0.1008176 5:0.0433243 6:0.0453615 7:0.0409097 8:0.0388164 
-0.0 0.0 100.0 1:0.4342068 2:0.2244305 3:0.094678 4:0.0746941 5:0.0463809 6:0.0440436 7:0.047188 8:0.0344573 
-100.0 100.0 0.0 1:0.3016586 2:0.3225371 3:0.190163 4:0.0631458 5:0.0324505 6:0.0349446 7:0.0294199 8:0.0257635 
-100.0 0.0 100.0 1:0.4125223 2:0.2032774 3:0.1126398 4:0.0611631 5:0.0438175 6:0.0647784 7:0.0581551 8:0.0436751 
-0.0 0.0 100.0 1:0.4259259 2:0.2196906 3:0.103784 4:0.0655798 5:0.0556372 6:0.0573263 7:0.0379048 8:0.0341947 
-100.0 56.886361801743625 100.0 1:0.4231237 2:0.1662017 3:0.0903645 4:0.0909521 5:0.0499269 6:0.0501109 7:0.0762782 8:0.0530919 
-100.0 0.0 0.0 1:0.3687574 2:0.2544234 3:0.13637 4:0.0700877 5:0.042856 6:0.0389808 7:0.0500858 8:0.0384747 
-100.0 0.0 100.0 1:0.4264926 2:0.1967088 3:0.103712 4:0.0832467 5:0.0488681 6:0.0525222 7:0.0472032 8:0.041273 
-100.0 0.0 0.0 1:0.3765354 2:0.2738424 3:0.1122944 4:0.0802927 5:0.0516046 6:0.0391489 7:0.0359783 8:0.0303307 
-0.0 0.0 100.0 1:0.4696597 2:0.2187782 3:0.0740987 4:0.0792123 5:0.0296605 6:0.0337546 7:0.0549525 8:0.0399278 
-0.0 0.0 100.0 1:0.4976883 2:0.1667971 3:0.0831383 4:0.0566608 5:0.0277676 6:0.043431 7:0.0661075 8:0.0585061 
-0.0 0.0 100.0 1:0.4398709 2:0.1863425 3:0.1220462 4:0.0576868 5:0.0261786 6:0.0577969 7:0.0472472 8:0.062904 
-0.0 0.0 100.0 1:0.4838439 2:0.1614496 3:0.1210326 4:0.0371701 5:0.0351567 6:0.0467701 7:0.0473725 8:0.0672237 
-100.0 100.0 0.0 1:0.3058319 2:0.2288529 3:0.1558779 4:0.0866272 5:0.0507957 6:0.0907241 7:0.0482045 8:0.0331522 
-100.0 100.0 100.0 1:0.3411293 2:0.2258267 3:0.1231586 4:0.0648976 5:0.0511072 6:0.0876336 7:0.0658759 8:0.0404337 
-100.0 100.0 0.0 1:0.3096928 2:0.2526609 3:0.1681409 4:0.0745879 5:0.0459565 6:0.0687356 7:0.047748 8:0.0325221 
-100.0 100.0 0.0 1:0.2758915 2:0.2280568 3:0.2070975 4:0.0601165 5:0.0516641 6:0.0864564 7:0.0525163 8:0.0382432 
-100.0 -0.0 0.0 1:0.2155336 2:0.2017024 3:0.1632269 4:0.0817428 5:0.087393 6:0.1226519 7:0.0561763 8:0.0716133 
-100.0 -100.0 100.0 1:0.2392892 2:0.2389927 3:0.146765 4:0.0933314 5:0.0644398 6:0.0852475 7:0.0659419 8:0.066024 
-10.826605410625191 -0.0 0.0 1:0.158819 2:0.2444227 3:0.1934893 4:0.1156048 5:0.0483935 6:0.0828973 7:0.0810545 8:0.0753728 
-100.0 -100.0 100.0 1:0.2913818 2:0.1548652 3:0.1400405 4:0.1035973 5:0.0859175 6:0.0773026 7:0.0641853 8:0.0827587 
-100.0 -100.0 100.0 1:0.3245161 2:0.176711 3:0.1134274 4:0.1038457 5:0.0772765 6:0.0858383 7:0.0575102 8:0.0609055 
-100.0 -100.0 22.32405480936142 1:0.2422392 2:0.248412 3:0.1812845 4:0.0747437 5:0.0730605 6:0.0795503 7:0.0443767 8:0.0563614 
-100.0 -0.0 0.0 1:0.1776213 2:0.2461396 3:0.2297836 4:0.1167901 5:0.0580854 6:0.0747096 7:0.0479149 8:0.0489842 
-100.0 -56.886361801743625 0.0 1:0.218385 2:0.2002458 3:0.2082393 4:0.0853178 5:0.0713594 6:0.0891227 7:0.0638922 8:0.063469 
-100.0 -0.0 0.0 1:0.1783119 2:0.2492113 3:0.183665 4:0.1323416 5:0.0694888 6:0.0731581 7:0.057233 8:0.0566466 
-100.0 -0.0 0.0 1:0.152521 2:0.2690354 3:0.1885892 4:0.1238124 5:0.0718769 6:0.0834301 7:0.0564828 8:0.0542858 
-100.0 -0.0 0.0 1:0.1915565 2:0.2109735 3:0.1979893 4:0.0908699 5:0.0855467 6:0.0980852 7:0.0711642 8:0.053846 
-100.0 -100.0 0.0 1:0.1936631 2:0.2658176 3:0.1871659 4:0.0820767 5:0.0545727 6:0.0916007 7:0.0555816 8:0.0695983 
-100.0 -100.0 0.0 1:0.2277872 2:0.2326323 3:0.1575772 4:0.0898964 5:0.0562949 6:0.0999158 7:0.0771208 8:0.0588018 
-100.0 -0.0 0.0 1:0.1655788 2:0.2809818 3:0.2228448 4:0.0800342 5:0.0652441 6:0.0731774 7:0.056882 8:0.0552913 
-0.0 -100.0 -0.0 1:0.4459166 2:0.1520935 3:0.0808558 4:0.0731252 5:0.0475093 6:0.0455088 7:0.0721046 8:0.0829838 
-100.0 -100.0 -0.0 1:0.4385149 2:0.2197919 3:0.1128086 4:0.0585599 5:0.0237315 6:0.0381919 7:0.047763 8:0.0606935 
-24.62773726099217 -100.0 -0.0 1:0.4382567 2:0.1326386 3:0.0614816 4:0.0514736 5:0.067366 6:0.0861785 7:0.1001647 8:0.0624671 
-100.0 -100.0 -100.0 1:0.4266328 2:0.129328 3:0.0693694 4:0.0820016 5:0.058239 6:0.0790573 7:0.0874789 8:0.0679291 
-100.0 -100.0 -100.0 1:0.3787725 2:0.1880673 3:0.1191293 4:0.0738844 5:0.0438698 6:0.0482768 7:0.0617951 8:0.0862236 
-100.0 -100.0 -22.32405480936142 1:0.4374227 2:0.241936 3:0.105091 4:0.0439451 5:0.0308982 6:0.0365269 7:0.0445091 8:0.0596976 
-0.0 -92.94736187157946 -0.0 1:0.5502806 2:0.1073221 3:0.0571565 4:0.0704489 5:0.0402212 6:0.041211 7:0.0470128 8:0.0863684 
-96.00251432443318 -7.05263812842054 -0.0 1:0.4409074 2:0.0709685 3:0.0889024 4:0.0604392 5:0.0790111 6:0.0920887 7:0.071358 8:0.0963483 
-0.0 -100.0 -0.0 1:0.5264874 2:0.1066914 3:0.1349024 4:0.0391101 5:0.0259784 6:0.0499958 7:0.0438636 8:0.0729959 
-100.0 -100.0 -100.0 1:0.4217333 2:0.1943597 3:0.1035775 4:0.0509922 5:0.0426305 6:0.0777698 7:0.0623315 8:0.0466186 
-0.0 -100.0 -0.0 1:0.472565 2:0.1122772 3:0.0407551 4:0.0537236 5:0.0504083 6:0.0818706 7:0.1049407 8:0.0834863 
