svm_type c_svc
kernel_type rbf
gamma 0.1
nr_class 4
total_sv 65
rho -2.4312193347039526 1.9222947802480015 -0.2889095011468587 -0.9032689599740126 3.3516887458756317 0.09545059564224208
label 4 2 3 1
nr_sv 18 21 13 13
SV
1000.0 0.0 0.0 1:0.2764667 2:0.3321429 3:0.1611757 4:0.1194525 5:0.0512929 6:0.0595363 
1000.0 0.0 0.0 1:0.29858 2:0.3158675 3:0.171213 4:0.1016972 5:0.0491267 6:0.0635787 
0.0 1000.0 0.0 1:0.1793559 2:0.350105 3:0.2680903 4:0.1057037 5:0.0519059 6:0.0448856 
1000.0 0.0 681.5445223751419 1:0.3395266 2:0.2749215 3:0.1527704 4:0.0977193 5:0.0646265 6:0.0704623 
0.0 1000.0 0.0 1:0.3219734 2:0.1934354 3:0.1359297 4:0.1261726 5:0.1184148 6:0.1041034 
252.20651294611773 1000.0 0.0 1:0.3067432 2:0.2423166 3:0.1264146 4:0.1162865 5:0.0973849 6:0.1108966 
1000.0 0.0 1000.0 1:0.4173082 2:0.1894438 3:0.1090843 4:0.0894906 5:0.0939892 6:0.1006969 
1000.0 1000.0 0.0 1:0.2614597 2:0.2901575 3:0.224125 4:0.1121354 5:0.0514126 6:0.0607807 
1000.0 0.0 1000.0 1:0.482856 2:0.1339906 3:0.1332802 4:0.1089173 5:0.0596999 6:0.0812769 
1000.0 71.29934473370145 0.0 1:0.3376928 2:0.2393501 3:0.2133026 4:0.0926085 5:0.0432725 6:0.0738289 
0.0 1000.0 0.0 1:0.1984649 2:0.2918518 3:0.1569983 4:0.1169122 5:0.0533576 6:0.1824808 
1000.0 1000.0 0.0 1:0.2665473 2:0.3135016 3:0.190974 4:0.0742186 5:0.0636921 6:0.091093 
0.0 1000.0 0.0 1:0.1667196 2:0.2789044 3:0.2308608 4:0.1513106 5:0.0733771 6:0.0989005 
0.0 1000.0 0.0 1:0.2156494 2:0.2837047 3:0.1923177 4:0.1488068 5:0.0770908 6:0.0824845 
1000.0 1000.0 0.0 1:0.2914622 2:0.2506527 3:0.1856172 4:0.1007538 5:0.0799545 6:0.0915923 
0.0 1000.0 0.0 1:0.2101514 2:0.2684895 3:0.1847435 4:0.144135 5:0.1044812 6:0.0880514 
0.0 1000.0 0.0 1:0.2488964 2:0.2733087 3:0.1921984 4:0.1079887 5:0.0842329 6:0.0934505 
0.0 1000.0 0.0 1:0.2267734 2:0.2280007 3:0.1430711 4:0.1740377 5:0.1132546 6:0.1149037 
-1000.0 219.72521730438854 0.0 1:0.3357844 2:0.3192195 3:0.1314866 4:0.1136382 5:0.0488337 6:0.05113 
-0.0 0.0 647.6534105548103 1:0.4466082 2:0.2564442 3:0.1080874 4:0.0855656 5:0.0528581 6:0.0505146 
-999.0032107812992 0.0 0.0 1:0.2969324 2:0.3523577 3:0.2075236 4:0.0692211 5:0.0354756 6:0.0385507 
-0.0 0.0 844.4053764978885 1:0.4332564 2:0.2372161 3:0.1314458 4:0.0713748 5:0.0511331 6:0.0755936 
-0.0 0.0 1000.0 1:0.4599885 2:0.201235 3:0.1087509 4:0.1097383 5:0.0598759 6:0.0604472 
-0.0 0.0 1000.0 1:0.4680449 2:0.1847676 3:0.0957692 4:0.0652547 5:0.0748793 6:0.1113621 
-0.0 0.0 1000.0 1:0.5425048 2:0.202019 3:0.1006943 4:0.0686256 5:0.0336312 6:0.0526021 
-0.0 0.0 1000.0 1:0.4680216 2:0.2202663 3:0.1443764 4:0.0680946 5:0.0309677 6:0.068328 
-0.0 0.0 1000.0 1:0.5202456 2:0.1928846 3:0.1445982 4:0.0444073 5:0.0420019 6:0.0558764 
-1000.0 1000.0 0.0 1:0.3103467 2:0.2575806 3:0.1754666 4:0.0969233 5:0.0577462 6:0.1019967 
-848.0574765944928 0.0 0.0 1:0.3570352 2:0.2623557 3:0.1431087 4:0.0755669 5:0.059735 6:0.1022354 
-1000.0 0.0 0.0 1:0.3136054 2:0.284281 3:0.1891835 4:0.0839225 5:0.0517079 6:0.0773377 
-1000.0 1000.0 0.0 1:0.2815139 2:0.2589938 3:0.2349354 4:0.0680641 5:0.0585638 6:0.0979489 
-1000.0 0.0 0.0 1:0.3853939 2:0.2206403 3:0.1427491 4:0.1057705 5:0.0714298 6:0.0740837 
-972.8507707677702 94.0816829594278 0.0 1:0.3001707 2:0.2778662 3:0.2181724 4:0.0563975 5:0.0678266 6:0.0796461 
-0.0 0.0 1000.0 1:0.4708403 2:0.1730877 3:0.1424195 4:0.080283 5:0.0629428 6:0.0704657 
-432.29505480255546 0.0 1000.0 1:0.4379064 2:0.1728656 3:0.1213993 4:0.0943448 5:0.0827037 6:0.0908196 
-0.0 0.0 1000.0 1:0.4650426 2:0.2493129 3:0.134029 4:0.0489188 5:0.0477114 6:0.0550141 
-1000.0 875.4874100164714 0.0 1:0.4148204 2:0.1714616 3:0.127379 4:0.1028686 5:0.0971806 6:0.0863366 
-0.0 0.0 1000.0 1:0.4952505 2:0.1797285 3:0.1233284 4:0.0743885 5:0.0695887 6:0.0577544 
-0.0 0.0 1000.0 1:0.4737637 2:0.1851909 3:0.1211679 4:0.086131 5:0.069137 6:0.0646411 
-1000.0 -189.29431028028773 0.0 1:0.2551315 2:0.2831282 3:0.1738685 4:0.1105672 5:0.0763401 6:0.1009904 
-1000.0 -0.0 0.0 1:0.172884 2:0.2952353 3:0.2330341 4:0.139971 5:0.0583581 6:0.1005573 
-1000.0 -1000.0 0.0 1:0.3187115 2:0.1881149 3:0.1700858 4:0.1257522 5:0.1042014 6:0.0931714 
-1000.0 -1000.0 965.0647233057248 1:0.3439548 2:0.2081068 3:0.1335798 4:0.1222957 5:0.091006 6:0.101089 
-1000.0 -1000.0 0.0 1:0.2493444 2:0.2839047 3:0.2072645 4:0.0855199 5:0.0831481 6:0.0908366 
-813.0219103206865 -0.0 0.0 1:0.180757 2:0.2777594 3:0.2596504 4:0.1316866 5:0.0657509 6:0.0844252 
-1000.0 -0.0 0.0 1:0.1848737 2:0.2869311 3:0.2117455 4:0.1526606 5:0.0797083 6:0.084131 
-1000.0 -0.0 0.0 1:0.1570603 2:0.3078248 3:0.2157799 4:0.1416637 5:0.0822401 6:0.095459 
-1000.0 -0.0 0.0 1:0.2037918 2:0.3108856 3:0.2187735 4:0.0959231 5:0.0640882 6:0.1066295 
-1000.0 -0.0 0.0 1:0.2436788 2:0.2765133 3:0.1873006 4:0.1068534 5:0.0669136 6:0.1187627 
-258.27743441301504 -0.0 0.0 1:0.1874589 2:0.2899661 3:0.1682825 4:0.1124596 5:0.0982364 6:0.1436365 
-1000.0 -0.0 0.0 1:0.1866267 2:0.3340622 3:0.179697 4:0.0849711 5:0.0930275 6:0.121649 
-1000.0 -0.0 0.0 1:0.3474629 2:0.1736561 3:0.1057301 4:0.1420723 5:0.1320966 6:0.0989969 
-0.0 -1000.0 -0.0 1:0.5015843 2:0.1900007 3:0.1012182 4:0.0912679 5:0.059147 6:0.0568593 
-0.0 -1000.0 -0.0 1:0.465083 2:0.2591922 3:0.1333299 4:0.0690519 5:0.0281093 6:0.0453072 
-0.0 -483.90988640003906 -0.0 1:0.4968335 2:0.1673242 3:0.0774102 4:0.0648417 5:0.0845587 6:0.1090561 
-812.8086815768783 -1000.0 -0.0 1:0.4785878 2:0.1613227 3:0.0864484 4:0.1025735 5:0.0724915 6:0.0985955 
-1000.0 -1000.0 -936.0705536370905 1:0.4187331 2:0.2310094 3:0.1463306 4:0.0907547 5:0.0538868 6:0.0593 
-0.0 -1000.0 -0.0 1:0.4622795 2:0.2839257 3:0.1233477 4:0.051392 5:0.0362481 6:0.0428173 
-235.37850148151972 -1000.0 -28.994169668634296 1:0.5035094 2:0.08999 3:0.1127396 4:0.0762731 5:0.0998056 6:0.1177126 
-0.0 -8.148900652659831 -0.0 1:0.5705519 2:0.1284677 3:0.1624368 4:0.0470927 5:0.0312807 6:0.0602002 
-633.3573393167441 -1000.0 -0.0 1:0.4471303 2:0.2289602 3:0.1220167 4:0.06007 5:0.0502197 6:0.0916146 
-0.0 -1000.0 -0.0 1:0.4656802 2:0.2642469 3:0.1565815 4:0.0407714 5:0.0273276 6:0.0454052 
-0.0 -1000.0 -0.0 1:0.4918119 2:0.2287249 3:0.0934074 4:0.0718087 5:0.0453687 6:0.0688879 
-0.0 -1000.0 -0.0 1:0.5172848 2:0.1498982 3:0.1247538 4:0.0595573 5:0.0651395 6:0.0833817 
-0.0 -1000.0 -0.0 1:0.532248 2:0.1473994 3:0.1234418 4:0.0637799 5:0.0579853 6:0.0751597 
