svm_type c_svc
kernel_type rbf
gamma 0.1
nr_class 4
total_sv 46
rho 5.041344260163803 -0.07982735668371106 -0.8191299312179343 -0.4921459190079646 -13.533141710666868 -7.1065517887707905
label 3 4 1 2
nr_sv 12 13 9 12
SV
10000.0 0.0 0.0 1:0.0269225 2:0.0509089 3:0.1283446 4:0.1034051 5:0.1199586 6:0.1436227 7:0.0974476 8:0.0405599 9:0.0226118 10:0.0276731 11:0.0360778 12:0.0269391 13:0.0224848 14:0.0191179 15:0.0284305 16:0.0281899 
4778.137534804569 0.0 1438.147325135562 1:0.0518294 2:0.139829 3:0.1341839 4:0.0568613 5:0.0717403 6:0.0753083 7:0.0595716 8:0.0335383 9:0.0312004 10:0.0332392 11:0.0437375 12:0.0415123 13:0.0331574 14:0.0330008 15:0.0344032 16:0.0312699 
10000.0 363.83849124609685 0.0 1:0.0676362 2:0.1654839 3:0.0891913 4:0.0347087 5:0.0746896 6:0.0653596 7:0.0551896 8:0.0484142 9:0.0447233 10:0.0411995 11:0.0458434 12:0.0314641 13:0.0316048 14:0.0325845 15:0.0431043 16:0.0396596 
0.0 0.0 2015.0950274515371 1:0.0509308 2:0.1428642 3:0.1110298 4:0.0877036 5:0.06201 6:0.1192778 7:0.0506595 8:0.0240856 9:0.0400021 10:0.0330599 11:0.0442895 12:0.0352622 13:0.0219359 14:0.0224416 15:0.0301766 16:0.0261858 
10000.0 0.0 0.0 1:0.0427825 2:0.0993171 3:0.107787 4:0.0891283 5:0.1008372 6:0.1289505 7:0.0803883 8:0.0364039 9:0.0326428 10:0.0254436 11:0.0371506 12:0.0375603 13:0.0240191 14:0.0238967 15:0.0235353 16:0.0254497 
5662.89035646305 0.0 0.0 1:0.0363635 2:0.1062936 3:0.1201682 4:0.0792113 5:0.0694644 6:0.1142103 7:0.1004477 8:0.0319009 9:0.0309571 10:0.0385354 11:0.0468747 12:0.0262872 13:0.0289554 14:0.0282806 15:0.0335852 16:0.0230644 
5481.174408382664 0.0 0.0 1:0.048556 2:0.0459383 3:0.0501146 4:0.0745491 5:0.1220549 6:0.122467 7:0.0942092 8:0.0616028 9:0.037549 10:0.0452618 11:0.032239 12:0.0320898 13:0.0361596 14:0.0476908 15:0.0478149 16:0.0470377 
2594.3233963917974 0.0 0.0 1:0.0307744 2:0.0354048 3:0.0520581 4:0.0998808 5:0.1000778 6:0.1475998 7:0.1142548 8:0.071622 9:0.0808248 10:0.0495715 11:0.0407952 12:0.0304092 13:0.0224429 14:0.0230594 15:0.0240554 16:0.0227757 
0.0 0.0 170.24899438762515 1:0.0291731 2:0.0639159 3:0.0424426 4:0.0542084 5:0.1794855 6:0.152767 7:0.0703277 8:0.0600663 9:0.0574699 10:0.0726123 11:0.0752765 12:0.0297033 13:0.0186834 14:0.0176398 15:0.0151209 16:0.0136961 
3585.1830379942403 0.0 0.0 1:0.0448816 2:0.1100634 3:0.0942304 4:0.1184436 5:0.1165451 6:0.0706383 7:0.0546927 8:0.0273917 9:0.0261538 10:0.028424 11:0.0454931 12:0.0461162 13:0.0281655 14:0.0274212 15:0.0363134 16:0.0332914 
0.0 0.0 323.68837811917626 1:0.0513696 2:0.1311099 3:0.1208106 4:0.0653073 5:0.0819384 6:0.0756767 7:0.0572357 8:0.0324103 9:0.0237163 10:0.0327304 11:0.0510197 12:0.0490419 13:0.0376797 14:0.039775 15:0.0365453 16:0.0215482 
10000.0 584.0550232274546 0.0 1:0.0699707 2:0.1923146 3:0.0708799 4:0.0470972 5:0.0482942 6:0.0414935 7:0.0562392 8:0.0644109 9:0.0501119 10:0.0620666 11:0.0546864 12:0.0293833 13:0.0232022 14:0.029622 15:0.0297145 16:0.0354935 
-0.0 0.0 2934.2196012630757 1:0.0658129 2:0.1701211 3:0.1630684 4:0.0615665 5:0.0978239 6:0.0543777 7:0.0574964 8:0.0329083 9:0.0212816 10:0.0223901 11:0.0366061 12:0.0199129 13:0.0114906 14:0.0207841 15:0.0327741 16:0.0165545 
-584.9971382642669 0.0 0.0 1:0.0428784 2:0.1034443 3:0.1399597 4:0.1176127 5:0.1038195 6:0.1418415 7:0.0558831 8:0.0404003 9:0.0214899 10:0.0262481 11:0.026774 12:0.0138881 13:0.0196248 14:0.0167325 15:0.0142322 16:0.0143229 
-9478.961600425406 0.0 0.0 1:0.0428784 2:0.1034443 3:0.1399597 4:0.1176127 5:0.1038195 6:0.1418415 7:0.0558831 8:0.0404003 9:0.0214899 10:0.0262481 11:0.026774 12:0.0138881 13:0.0196248 14:0.0167325 15:0.0142322 16:0.0143229 
-0.0 0.0 9028.957428806756 1:0.0961616 2:0.1584639 3:0.1274309 4:0.0581371 5:0.0639082 6:0.0652896 7:0.0535828 8:0.0285239 9:0.0254033 10:0.0294683 11:0.0327439 12:0.0264874 13:0.0276311 14:0.0332845 15:0.0319144 16:0.0315896 
-8238.596059087788 2609.8715337780777 0.0 1:0.1056814 2:0.1875149 3:0.0861189 4:0.0336337 5:0.0499643 6:0.0360357 7:0.0340554 8:0.0367634 9:0.0342324 10:0.0400352 11:0.0433787 12:0.0364974 13:0.0437721 14:0.0484109 15:0.042707 16:0.0380296 
-10000.0 0.0 0.0 1:0.0085298 2:0.0793698 3:0.0330383 4:0.0665716 5:0.1712487 6:0.1038062 7:0.1362628 8:0.0727173 9:0.065274 10:0.0210799 11:0.0214893 12:0.0236077 13:0.0348169 14:0.0399379 15:0.0402745 16:0.0351647 
-695.3210965140622 0.0 3900.1346049740396 1:0.0642707 2:0.1448685 3:0.1563285 4:0.0525564 5:0.1345312 6:0.0671537 7:0.053286 8:0.047622 9:0.0261569 10:0.0201081 11:0.0249639 12:0.0297313 13:0.0216456 14:0.0221526 15:0.0161116 16:0.0142488 
-0.0 1018.0887392758183 10000.0 1:0.1103515 2:0.2612265 3:0.07022 4:0.0225359 5:0.0329425 6:0.0835011 7:0.0565657 8:0.0371555 9:0.0271529 10:0.0243016 11:0.0377459 12:0.0329262 13:0.0295497 14:0.0264071 15:0.0179649 16:0.0134635 
-10000.0 0.0 0.0 1:0.0419966 2:0.0866981 3:0.11096 4:0.0828036 5:0.0838609 6:0.1166218 7:0.0765014 8:0.0548989 9:0.0248489 10:0.0388728 11:0.0588499 12:0.0270367 13:0.0179601 14:0.0230761 15:0.0366113 16:0.0379321 
-3103.832839744792 0.0 0.0 1:0.0603014 2:0.1112785 3:0.1110135 4:0.0914469 5:0.0699785 6:0.1014276 7:0.0935976 8:0.0395393 9:0.027453 10:0.0420479 11:0.0445669 12:0.0292119 13:0.0182743 14:0.0200067 15:0.0235814 16:0.0228707 
-10000.0 0.0 233.77102815090535 1:0.0743636 2:0.1172843 3:0.1279882 4:0.0614124 5:0.0584476 6:0.1080423 7:0.0580218 8:0.0355222 9:0.0294354 10:0.0435304 11:0.0395457 12:0.0414048 13:0.0266456 14:0.0285138 15:0.0281756 16:0.0265513 
-10000.0 0.0 0.0 1:0.0531172 2:0.1189347 3:0.0782358 4:0.0775317 5:0.0544111 6:0.0677623 7:0.093288 8:0.0554293 9:0.0465492 10:0.0502649 11:0.0561906 12:0.0417692 13:0.0222644 14:0.0202053 15:0.0392958 16:0.0428675 
-0.0 0.0 3058.563489465224 1:0.151425 2:0.135245 3:0.200125 4:0.180911 5:0.084256 6:0.068524 7:0.021254 8:0.023548 9:0.032458 10:0.015657 11:0.024525 12:0.0248654 13:0.012456 14:0.012555 15:0.011578 16:0.015896 
-0.0 -0.0 4320.998007268108 1:0.1901117 2:0.1666419 3:0.0881501 4:0.0335317 5:0.0435542 6:0.0373063 7:0.0384097 8:0.0347196 9:0.0225319 10:0.0249802 11:0.0259332 12:0.0195781 13:0.0308266 14:0.0412821 15:0.0493943 16:0.0335943 
-0.0 -0.0 10000.0 1:0.2037047 2:0.1471229 3:0.1277803 4:0.048061 5:0.044246 6:0.0685677 7:0.0410161 8:0.0175465 9:0.010599 10:0.0131336 11:0.0218983 12:0.0162953 13:0.0200181 14:0.027747 15:0.0320457 16:0.0286505 
-947.8935144735516 -3275.9789140863736 10000.0 1:0.1484173 2:0.1928972 3:0.080017 4:0.0234479 5:0.026035 6:0.043336 7:0.0492157 8:0.0327879 9:0.0199915 10:0.0382489 11:0.0366572 12:0.042402 13:0.0492021 14:0.0382789 15:0.0335005 16:0.0344303 
-0.0 -351.9813589675223 0.0 1:0.1637334 2:0.2764981 3:0.0659144 4:0.0199446 5:0.0257666 6:0.0313908 7:0.0358746 8:0.0345754 9:0.0227734 10:0.0174484 11:0.0214541 12:0.0197576 13:0.0211241 14:0.0258894 15:0.0362876 16:0.0500821 
-0.0 -0.0 10000.0 1:0.1779723 2:0.1595395 3:0.1155209 4:0.0398906 5:0.0465444 6:0.0570814 7:0.0307882 8:0.0201938 9:0.0195334 10:0.0231198 11:0.0387666 12:0.0391516 13:0.0344495 14:0.0277444 15:0.0256039 16:0.0209004 
-0.0 -0.0 6899.206788524849 1:0.2198035 2:0.1376837 3:0.1279234 4:0.0545788 5:0.0644869 6:0.0707586 7:0.0227447 8:0.0123299 9:0.0108435 10:0.012809 11:0.0201829 12:0.0190813 13:0.0177329 14:0.0232278 15:0.0262918 16:0.0245484 
-0.0 -0.0 926.5119517780934 1:0.2126684 2:0.1519407 3:0.1183545 4:0.034153 5:0.0355069 6:0.0425505 7:0.0391359 8:0.0206293 9:0.0167241 10:0.0211987 11:0.033029 12:0.0243392 13:0.0217932 14:0.0293319 15:0.0348606 16:0.0345344 
-0.0 -0.0 744.3074773072631 1:0.2525084 2:0.124321 3:0.0431104 4:0.0332051 5:0.0399012 6:0.0349198 7:0.036349 8:0.0316372 9:0.0329901 10:0.0358726 11:0.0490875 12:0.0365795 13:0.0400548 14:0.039624 15:0.0325993 16:0.024044 
-0.0 -0.0 10000.0 1:0.2553717 2:0.1455357 3:0.0714236 4:0.0285 5:0.0539137 6:0.0506895 7:0.0357355 8:0.0183108 9:0.0180717 10:0.0310643 11:0.0334269 12:0.0302625 13:0.0248475 14:0.0275701 15:0.0256835 16:0.0244297 
-0.0 -8010.887602658766 -0.0 1:0.1128036 2:0.2184658 3:0.1405279 4:0.054799 5:0.0657492 6:0.0569454 7:0.0537494 8:0.0352747 9:0.0165193 10:0.0226875 11:0.0158684 12:0.0109428 13:0.0128552 14:0.016663 15:0.0206083 16:0.013941 
-18.962652527486334 -10000.0 -0.0 1:0.1128847 2:0.2286851 3:0.1209501 4:0.0361978 5:0.0467108 6:0.0574707 7:0.053995 8:0.0287472 9:0.0233696 10:0.0257515 11:0.0317417 12:0.0207008 13:0.0213378 14:0.0257861 15:0.0208377 16:0.020251 
-0.0 -0.0 -8809.322248938808 1:0.1726333 2:0.2031219 3:0.1241004 4:0.0509349 5:0.0434304 6:0.0306737 7:0.045186 8:0.034032 9:0.0167202 10:0.0129425 11:0.0126246 12:0.0211325 13:0.0287705 14:0.026186 15:0.0203023 16:0.0196284 
-0.0 -0.0 -10000.0 1:0.219254 2:0.1300799 3:0.0937457 4:0.0303961 5:0.0296086 6:0.051136 7:0.0360589 8:0.0187803 9:0.0134079 10:0.0493937 11:0.0549798 12:0.0383733 13:0.040785 14:0.0252407 15:0.024311 16:0.0261721 
-0.0 -0.0 -10000.0 1:0.1989563 2:0.1531014 3:0.1107354 4:0.0383148 5:0.0623597 6:0.0598357 7:0.0378821 8:0.0195806 9:0.0108547 10:0.0155497 11:0.0308208 12:0.0269194 13:0.0205886 14:0.0266976 15:0.0297564 16:0.0328915 
-402.5762553143477 -0.0 -0.0 1:0.0836735 2:0.1641523 3:0.1524405 4:0.0497829 5:0.0740637 6:0.0941878 7:0.0513525 8:0.0230639 9:0.0221198 10:0.023811 11:0.0362432 12:0.032659 13:0.0266935 14:0.0210117 15:0.0186812 16:0.0136204 
-3525.640817252067 -8773.187593939596 -0.0 1:0.0798247 2:0.1410696 3:0.1253453 4:0.0570091 5:0.0878971 6:0.1194917 7:0.0379708 8:0.0218822 9:0.0248302 10:0.026937 11:0.0465048 12:0.0400359 13:0.0269087 14:0.0255536 15:0.0218488 16:0.0161442 
-0.0 -823.1611471441153 -0.0 1:0.1407685 2:0.1575475 3:0.1129567 4:0.0578482 5:0.0869576 6:0.0495395 7:0.0375189 8:0.021576 9:0.0258667 10:0.0379556 11:0.0338301 12:0.0246256 13:0.025099 14:0.0283178 15:0.0246443 16:0.0179049 
-0.0 -1548.4098089175266 -0.0 1:0.1423283 2:0.091349 3:0.1084617 4:0.0860103 5:0.1126497 6:0.0783073 7:0.0283068 8:0.0209031 9:0.0199162 10:0.0397539 11:0.03793 12:0.0315513 13:0.0281889 14:0.0229685 15:0.0221737 16:0.0223134 
-0.0 -0.0 -10000.0 1:0.1934189 2:0.1609048 3:0.0844569 4:0.0328965 5:0.0560411 6:0.0644911 7:0.0420502 8:0.0256659 9:0.0206216 10:0.0329845 11:0.0342629 12:0.0252427 13:0.0313306 14:0.0309984 15:0.0257491 16:0.0210385 
-0.0 -0.0 -4081.7019759395116 1:0.201881 2:0.1549648 3:0.1075255 4:0.0647847 5:0.0732076 6:0.0423414 7:0.0249004 8:0.0171693 9:0.0165956 10:0.0249378 11:0.0274911 12:0.0200522 13:0.0206077 14:0.0244066 15:0.0268274 16:0.0200871 
-0.0 -0.0 -10000.0 1:0.2037104 2:0.1499596 3:0.096242 4:0.0281804 5:0.0386637 6:0.0630962 7:0.0445093 8:0.0278257 9:0.0212094 10:0.0368536 11:0.0336082 12:0.0206791 13:0.0252883 14:0.0362912 15:0.0302044 16:0.0242433 
