svm_type c_svc
kernel_type rbf
gamma 0.1
nr_class 4
total_sv 80
rho -5.157312386562349 4.308834668311199 -0.5795516079504905 3.5133604027588703 2.3597409332565147 -0.2020299434661439
label 4 2 3 1
nr_sv 21 28 17 14
SV
1000.0 1000.0 0.0 1:0.2409847 2:0.3155107 3:0.1638252 4:0.1426878 5:0.0776108 6:0.0594604 
1000.0 19.07404575208439 0.0 1:0.2775212 2:0.3074986 3:0.1626028 4:0.1281701 5:0.0641398 6:0.0601312 
1000.0 1000.0 0.0 1:0.271043 2:0.2764749 3:0.1167711 4:0.1274547 5:0.0806223 6:0.1276772 
1000.0 1000.0 1000.0 1:0.3623021 2:0.222592 3:0.1066323 4:0.1053617 5:0.1099413 6:0.0932163 
119.42688056438233 1000.0 0.0 1:0.2140815 2:0.3242804 3:0.2053671 4:0.1238444 5:0.0719326 6:0.0606036 
0.0 1000.0 0.0 1:0.1903824 2:0.3408611 3:0.2027329 4:0.1507864 5:0.062814 6:0.0525193 
1000.0 0.0 1000.0 1:0.4369406 2:0.1747925 3:0.0783285 4:0.1468259 5:0.0833936 6:0.0797641 
1000.0 1000.0 236.17120133138624 1:0.2932734 2:0.2588371 3:0.1568962 4:0.158309 5:0.0548735 6:0.0778778 
252.12131105311244 1000.0 0.0 1:0.1710633 2:0.2642266 3:0.1385263 4:0.1265456 5:0.1080519 6:0.1916982 
1000.0 1000.0 0.0 1:0.2221048 2:0.3399753 3:0.1393067 4:0.1290545 5:0.0764249 6:0.0931727 
0.0 1000.0 0.0 1:0.1820724 2:0.2486381 3:0.2122779 4:0.1823318 5:0.0711518 6:0.1036013 
1000.0 1000.0 0.0 1:0.2643498 2:0.255408 3:0.1706035 4:0.1421208 5:0.0610879 6:0.1064757 
0.0 1000.0 0.0 1:0.1273458 2:0.4252215 3:0.2135965 4:0.1210406 5:0.0448963 6:0.0679298 
0.0 1000.0 0.0 1:0.1599381 2:0.375243 3:0.2594544 4:0.1120757 5:0.0452405 6:0.0481307 
1000.0 0.0 0.0 1:0.2766137 2:0.42773 3:0.1618998 4:0.0710394 5:0.0368068 6:0.026011 
1000.0 0.0 1000.0 1:0.3287187 2:0.2925303 3:0.2011673 4:0.0842241 5:0.0478657 6:0.0453898 
1000.0 0.0 0.0 1:0.2864891 2:0.3685447 3:0.1611706 4:0.0666021 5:0.0496543 6:0.0674739 
1000.0 0.0 47.46295319305796 1:0.2821789 2:0.2674232 3:0.2083119 4:0.1197081 5:0.0478083 6:0.0745006 
0.0 1000.0 0.0 1:0.1780212 2:0.3654414 3:0.1569149 4:0.1265558 5:0.1109781 6:0.0621051 
0.0 1000.0 0.0 1:0.1630792 2:0.3851966 3:0.209114 4:0.1334454 5:0.0472255 6:0.0619694 
0.0 1000.0 0.0 1:0.1972725 2:0.3274447 3:0.1950383 4:0.1362156 5:0.0808814 6:0.0631815 
-735.3543276600642 0.0 0.0 1:0.300334 2:0.3411641 3:0.0891994 4:0.1505651 5:0.0562627 6:0.0625525 
-0.0 0.0 1000.0 1:0.4067734 2:0.287013 3:0.0985541 4:0.0823936 5:0.0717442 6:0.0535955 
-1000.0 0.0 0.0 1:0.2416692 2:0.3830723 3:0.1699603 4:0.1257664 5:0.0349729 6:0.0446265 
-0.0 0.0 1000.0 1:0.3911468 2:0.2674253 3:0.112214 4:0.1000622 5:0.0534547 6:0.0757498 
-0.0 0.0 1000.0 1:0.4113769 2:0.2510843 3:0.0831673 4:0.1307996 5:0.0668965 6:0.056723 
-0.0 0.0 1000.0 1:0.4771088 2:0.2379909 3:0.1001442 4:0.0816809 5:0.0536531 6:0.0494775 
-0.0 0.0 1000.0 1:0.4106664 2:0.247103 3:0.1323574 4:0.0993813 5:0.0453724 6:0.0651955 
-0.0 0.0 1000.0 1:0.4609207 2:0.222589 3:0.1460611 4:0.0832681 5:0.0407582 6:0.0464296 
-1000.0 1000.0 0.0 1:0.2724697 2:0.2801492 3:0.1264078 4:0.1544911 5:0.0665449 6:0.1000539 
-1000.0 0.0 0.0 1:0.3116794 2:0.2927444 3:0.1473249 4:0.0930106 5:0.0631016 6:0.0922047 
-1000.0 1000.0 0.0 1:0.2805643 2:0.3006918 3:0.149987 4:0.1298827 5:0.0594404 6:0.0794724 
-1000.0 1000.0 0.0 1:0.2482019 2:0.2730926 3:0.1911601 4:0.1344008 5:0.0567772 6:0.0964091 
-1000.0 0.0 0.0 1:0.3370937 2:0.2507862 3:0.1167823 4:0.1315056 5:0.0748639 6:0.0890401 
-1000.0 0.0 0.0 1:0.2759234 2:0.2711612 3:0.2156209 4:0.0874433 5:0.0544543 6:0.0954801 
-1000.0 0.0 0.0 1:0.3504807 2:0.2358517 3:0.1704335 4:0.0795618 5:0.0726037 6:0.0911387 
-0.0 0.0 1000.0 1:0.4266369 2:0.2059347 3:0.1223449 4:0.1066919 5:0.0625115 6:0.0759194 
-1000.0 995.7703979297701 0.0 1:0.3588301 2:0.214299 3:0.0973014 4:0.1391567 5:0.0918112 6:0.0986542 
-0.0 0.0 1000.0 1:0.3625232 2:0.2317967 3:0.1616126 4:0.0884828 5:0.0667546 6:0.0888809 
-0.0 0.0 1000.0 1:0.4070643 2:0.2628746 3:0.1545058 4:0.068824 5:0.0473211 6:0.059448 
-0.0 0.0 796.8579349061407 1:0.3603864 2:0.2076745 3:0.1012527 4:0.1248837 5:0.0852693 6:0.1205878 
-0.0 0.0 1000.0 1:0.4544242 2:0.1986461 3:0.0949394 4:0.1071953 5:0.0698452 6:0.0750346 
-0.0 0.0 1000.0 1:0.4239347 2:0.2102472 3:0.0898282 4:0.1139082 5:0.0819754 6:0.080156 
-0.0 0.0 1000.0 1:0.4928176 2:0.2378752 3:0.0788604 4:0.0504156 5:0.073451 6:0.0667826 
-0.0 0.0 88.62927347251522 1:0.3785283 2:0.3309201 3:0.0964806 4:0.070033 5:0.0701725 6:0.0542519 
-636.1938639574307 0.0 0.0 1:0.2711286 2:0.4117278 3:0.1410545 4:0.0882707 5:0.0523197 6:0.0354985 
-0.0 838.3792984863455 0.0 1:0.2690607 2:0.4122797 3:0.133466 4:0.0878045 5:0.0530345 6:0.0443446 
-1000.0 5.616393133414929 0.0 1:0.3050854 2:0.3039805 3:0.1605137 4:0.0877683 5:0.0781815 6:0.0645548 
-1000.0 1000.0 0.0 1:0.2956278 2:0.323178 3:0.1449397 4:0.0996228 5:0.0688265 6:0.067916 
-1000.0 -0.0 0.0 1:0.2191305 2:0.2090926 3:0.201173 4:0.1322368 5:0.0821866 6:0.1562524 
-1000.0 -0.0 0.0 1:0.2178943 2:0.3059944 3:0.142282 4:0.1494525 5:0.0827822 6:0.1016412 
-324.1932398831732 -1000.0 0.0 1:0.2829434 2:0.2052643 3:0.1331672 4:0.1553838 5:0.1169212 6:0.1063789 
-1000.0 -1000.0 1000.0 1:0.3268802 2:0.2288133 3:0.1160635 4:0.1321896 5:0.090443 6:0.1056656 
-591.2237800552347 -0.0 0.0 1:0.2013939 2:0.1827923 3:0.246007 4:0.1354771 5:0.0992334 6:0.1351698 
-1000.0 -0.0 0.0 1:0.2191559 2:0.265368 3:0.1633517 4:0.1475503 5:0.0922895 6:0.1123312 
-1000.0 -0.0 0.0 1:0.1248023 2:0.2868288 3:0.2828057 4:0.1359695 5:0.0722709 6:0.0973579 
-1000.0 -1000.0 0.0 1:0.3063513 2:0.2024473 3:0.1190895 4:0.1161692 5:0.127317 6:0.1286719 
-1000.0 -1000.0 379.1479428489539 1:0.2810237 2:0.3504774 3:0.1685178 4:0.0941861 5:0.0565447 6:0.0493173 
-1000.0 -69.39493540460899 0.0 1:0.1856477 2:0.3877272 3:0.1538486 4:0.1572707 5:0.0726944 6:0.0428291 
-1000.0 -1000.0 0.0 1:0.2431432 2:0.3820995 3:0.1141123 4:0.1343648 5:0.0607147 6:0.0655743 
-1000.0 -0.0 0.0 1:0.1372471 2:0.3970021 3:0.1932527 4:0.1557201 5:0.0630502 6:0.053771 
-1000.0 -0.0 0.0 1:0.1847641 2:0.3676198 3:0.1450555 4:0.1559937 5:0.0748663 6:0.0617092 
-1000.0 -770.3711541449221 0.0 1:0.1658935 2:0.4294152 3:0.166692 4:0.1109377 5:0.0579265 6:0.0591433 
-1000.0 -0.0 0.0 1:0.1429138 2:0.3475274 3:0.239881 4:0.1487801 5:0.0649852 6:0.0489254 
-797.9178553775656 -0.0 0.0 1:0.1833073 2:0.3202288 3:0.1839268 4:0.1552086 5:0.0888289 6:0.0685089 
-305.7391704361108 -0.0 0.0 1:0.1483732 2:0.3636356 3:0.198689 4:0.1239929 5:0.0921952 6:0.0731213 
-0.0 -1000.0 -0.0 1:0.4439439 2:0.2225905 3:0.1115535 4:0.0984323 5:0.0652111 6:0.0583692 
-0.0 -1000.0 -0.0 1:0.4197652 2:0.2756128 3:0.1117934 4:0.1116132 5:0.0386098 6:0.0426649 
-0.0 -1000.0 -0.0 1:0.4489109 2:0.2012522 3:0.0795135 4:0.0765619 5:0.088247 6:0.1055513 
-1000.0 -1000.0 -379.1479428489539 1:0.4088722 2:0.2090731 3:0.0751696 4:0.1112109 5:0.0836294 6:0.1120931 
-1000.0 -1000.0 -1000.0 1:0.3652047 2:0.2721088 3:0.1446504 4:0.119457 5:0.0541221 6:0.0444769 
-405.03276228349677 -1000.0 -0.0 1:0.4029051 2:0.3056892 3:0.1282827 4:0.0754408 5:0.0459968 6:0.0417288 
-0.0 -1000.0 -0.0 1:0.4225563 2:0.1996435 3:0.0803742 4:0.0923032 5:0.064931 6:0.1402573 
-0.0 -359.13107817814443 -0.0 1:0.4673988 2:0.1002965 3:0.1183365 4:0.1121163 5:0.0746615 6:0.1272084 
-0.0 -1000.0 -0.0 1:0.4102686 2:0.256625 3:0.1099803 4:0.087266 5:0.0552552 6:0.0806285 
-0.0 -526.3561302005115 -0.0 1:0.4821107 2:0.2084882 3:0.0821788 4:0.0795028 5:0.063247 6:0.084502 
-0.0 -1000.0 -0.0 1:0.4297856 2:0.269867 3:0.1409338 4:0.0847958 5:0.0340723 6:0.0405661 
-0.0 -1000.0 -0.0 1:0.4528645 2:0.2430137 3:0.0962124 4:0.0899629 5:0.0506955 6:0.0672705 
-878.6013922409471 -1000.0 -0.0 1:0.4003518 2:0.165426 3:0.1865097 4:0.118297 5:0.0723025 6:0.0571172 
-0.0 -1000.0 -0.0 1:0.4902 2:0.2734972 3:0.105022 4:0.0541007 5:0.0461033 6:0.0311376 
