svm_type c_svc
kernel_type rbf
gamma 0.1
nr_class 4
total_sv 51
rho 2.857306819945236 -0.06573372831066915 0.22169463715204 0.45733532905911106 3.730486718252463 5.536951472493247
label 1 2 3 4
nr_sv 11 8 14 18
SV
135.38894267298545 0.0 0.0 1:0.6473142 2:0.171119 3:0.0716707 4:0.0298736 5:0.0146056 6:0.0144835 7:0.025025 8:0.0272376 
1000.0 0.0 108.61051403580724 1:0.4385149 2:0.2197919 3:0.1128086 4:0.0585599 5:0.0237315 6:0.0381919 7:0.047763 8:0.0606935 
0.0 526.1272630234178 1000.0 1:0.4266328 2:0.129328 3:0.0693694 4:0.0820016 5:0.058239 6:0.0790573 7:0.0874789 8:0.0679291 
0.0 0.0 303.2152492128821 1:0.4409074 2:0.0709685 3:0.0889024 4:0.0604392 5:0.0790111 6:0.0920887 7:0.071358 8:0.0963483 
1000.0 101.82436231849249 1000.0 1:0.4217333 2:0.1943597 3:0.1035775 4:0.0509922 5:0.0426305 6:0.0777698 7:0.0623315 8:0.0466186 
1000.0 0.0 0.0 1:0.4467716 2:0.2281537 3:0.1351917 4:0.0351515 5:0.0236073 6:0.0392414 7:0.0409871 8:0.0509165 
1000.0 0.0 0.0 1:0.4556537 2:0.1907181 3:0.077886 4:0.0598764 5:0.0378299 6:0.0574409 7:0.0510142 8:0.0695936 
1000.0 0.0 0.0 1:0.4791722 2:0.2540567 3:0.1212086 4:0.0346779 5:0.0344494 6:0.0242551 7:0.0307118 8:0.0215879 
1000.0 0.0 0.0 1:0.4521805 2:0.2439115 3:0.0910265 4:0.0646425 5:0.0626847 6:0.0289127 7:0.0297919 8:0.0269678 
1000.0 0.0 0.0 1:0.5775992 2:0.1680904 3:0.0984315 4:0.0517551 5:0.0354115 6:0.0286027 7:0.0212467 8:0.0189145 
776.7399655691182 0.0 0.0 1:0.5410615 2:0.170934 3:0.0674712 4:0.0392112 5:0.0466725 6:0.0358875 7:0.0423674 8:0.056921 
-1000.0 0.0 0.0 1:0.5662059 2:0.2303211 3:0.0681668 4:0.0447178 5:0.0211398 6:0.0263714 7:0.0233084 8:0.0199734 
-1000.0 0.0 0.0 1:0.5903581 2:0.2321148 3:0.0817889 4:0.0343824 5:0.0229342 6:0.018637 7:0.0098637 8:0.0102168 
-1000.0 0.0 0.0 1:0.5475113 2:0.2279589 3:0.0846867 4:0.064129 5:0.0264877 6:0.0201311 7:0.014346 8:0.0150645 
-1000.0 0.0 4.958542100599838 1:0.422134 2:0.2159392 3:0.0790083 4:0.058902 5:0.0619184 6:0.0340179 7:0.0455103 8:0.0827935 
-1000.0 0.0 0.0 1:0.457049 2:0.2550809 3:0.1030383 4:0.0630375 5:0.0357447 6:0.0326582 7:0.0251856 8:0.0282241 
-912.1289082421036 245.91593199119436 1000.0 1:0.4136278 2:0.2444778 3:0.1225936 4:0.0891734 5:0.0391448 6:0.0268701 7:0.0294366 8:0.0347008 
-1000.0 1000.0 1000.0 1:0.3647175 2:0.1787055 3:0.1388274 4:0.0519811 5:0.0578273 6:0.0742785 7:0.0715003 8:0.0622023 
-1000.0 0.0 1000.0 1:0.4420604 2:0.1555185 3:0.1017537 4:0.0723306 5:0.0580594 6:0.0542839 7:0.0615758 8:0.0544444 
-0.0 -0.0 1000.0 1:0.2982587 2:0.251644 3:0.1536584 4:0.0997934 5:0.0680203 6:0.0466974 7:0.0405675 8:0.0414112 
-0.0 -0.0 1000.0 1:0.2242061 2:0.3244958 3:0.1626029 4:0.0597632 5:0.0607723 6:0.0685551 7:0.0396481 8:0.0599706 
-0.0 -0.0 1000.0 1:0.2538178 2:0.3238846 3:0.1983715 4:0.0556442 5:0.061082 6:0.0382056 7:0.0271686 8:0.0419018 
-0.0 -729.4579226645675 1000.0 1:0.2986149 2:0.2293474 3:0.1723385 4:0.0959511 5:0.0469205 6:0.0677791 7:0.0407301 8:0.0483294 
-0.0 -0.0 1000.0 1:0.0972838 2:0.289671 3:0.2635667 4:0.1379998 5:0.0502822 6:0.0630133 7:0.0416004 8:0.0566173 
-0.0 -0.0 1000.0 1:0.2392892 2:0.2389927 3:0.146765 4:0.0933314 5:0.0644398 6:0.0852475 7:0.0659419 8:0.066024 
-0.0 -0.0 549.6949313239344 1:0.1320954 2:0.2460684 3:0.2530874 4:0.1250864 5:0.0586149 6:0.0775671 7:0.0483044 8:0.0592058 
-0.0 -0.0 1000.0 1:0.2913818 2:0.1548652 3:0.1400405 4:0.1035973 5:0.0859175 6:0.0773026 7:0.0641853 8:0.0827587 
-0.0 -0.0 1000.0 1:0.2422392 2:0.248412 3:0.1812845 4:0.0747437 5:0.0730605 6:0.0795503 7:0.0443767 8:0.0563614 
-0.0 -0.0 1000.0 1:0.1776213 2:0.2461396 3:0.2297836 4:0.1167901 5:0.0580854 6:0.0747096 7:0.0479149 8:0.0489842 
-0.0 -0.0 1000.0 1:0.1783119 2:0.2492113 3:0.183665 4:0.1323416 5:0.0694888 6:0.0731581 7:0.057233 8:0.0566466 
-0.0 -0.0 1000.0 1:0.152521 2:0.2690354 3:0.1885892 4:0.1238124 5:0.0718769 6:0.0834301 7:0.0564828 8:0.0542858 
-0.0 -0.0 466.9001228309857 1:0.2277872 2:0.2326323 3:0.1575772 4:0.0898964 5:0.0562949 6:0.0999158 7:0.0771208 8:0.0588018 
-627.9516253419104 -516.4580093266269 1000.0 1:0.327848 2:0.1474676 3:0.0897853 4:0.1206469 5:0.1121756 6:0.0840675 7:0.0528228 8:0.0652063 
-0.0 -509.0565131225538 -0.0 1:0.286592 2:0.3810384 3:0.1462548 4:0.0432487 5:0.0401152 6:0.0499294 7:0.0244481 8:0.0284275 
-0.0 -0.0 -710.4089952180983 1:0.2913551 2:0.2980191 3:0.1535862 4:0.0715078 5:0.0676965 6:0.0497896 7:0.0367228 8:0.0314202 
-0.0 -0.0 -1000.0 1:0.2952909 2:0.2627643 3:0.1197055 4:0.0967197 5:0.0495097 6:0.0629421 7:0.0559018 8:0.0571724 
-0.0 -0.0 -717.6487340122787 1:0.2469235 2:0.3103299 3:0.1534741 4:0.0884474 5:0.0488811 6:0.0522947 7:0.0528119 8:0.0468692 
-0.0 -0.0 -996.2063885846003 1:0.1828234 2:0.3213512 3:0.2453206 4:0.0970581 5:0.0476138 6:0.0408117 7:0.0363121 8:0.0287847 
-0.0 -0.0 -247.10714442380902 1:0.2613823 2:0.2610645 3:0.2016528 4:0.100892 5:0.0462576 6:0.0546865 7:0.0437912 8:0.0303555 
-1000.0 -1000.0 -0.0 1:0.4643624 2:0.1159732 3:0.1154382 4:0.0944076 5:0.0515678 6:0.070692 7:0.055977 8:0.031616 
-0.0 -495.902028978046 -0.0 1:0.3419015 2:0.2180998 3:0.1943649 4:0.0843864 5:0.0394307 6:0.0672742 7:0.0380376 8:0.0165623 
-0.0 -0.0 -1000.0 1:0.2603312 2:0.2755715 3:0.1678683 4:0.065239 5:0.0559861 6:0.0800718 7:0.0634638 8:0.031498 
-0.0 -0.0 -1000.0 1:0.2008191 2:0.2299306 3:0.1594772 4:0.1227493 5:0.090131 6:0.0749263 7:0.0536131 8:0.068417 
-0.0 -0.0 -1000.0 1:0.215057 2:0.1947023 3:0.122169 4:0.1487119 5:0.0968106 6:0.0979562 7:0.0424681 8:0.0821602 
-0.0 -0.0 -1000.0 1:0.1828234 2:0.3213512 3:0.2453206 4:0.0970581 5:0.0476138 6:0.0408117 7:0.0363121 8:0.0287847 
-0.0 -0.0 -988.3313780204197 1:0.1828234 2:0.3213512 3:0.2453206 4:0.0970581 5:0.0476138 6:0.0408117 7:0.0363121 8:0.0287847 
-411.8257632486894 -0.0 -1000.0 1:0.3182113 2:0.2319122 3:0.1289758 4:0.0823737 5:0.0546939 6:0.0592632 7:0.060678 8:0.0639156 
-1000.0 -1000.0 -1000.0 1:0.3664814 2:0.1496851 3:0.0859968 4:0.0708161 5:0.0742648 6:0.079873 7:0.0921795 8:0.0807335 
-0.0 -0.0 -1000.0 1:0.1098212 2:0.1244439 3:0.2746791 4:0.2093383 5:0.0862725 6:0.045077 7:0.0747439 8:0.0756446 
-0.0 -0.0 -356.8924138957142 1:0.2613823 2:0.2610645 3:0.2016528 4:0.100892 5:0.0462576 6:0.0546865 7:0.0437912 8:0.0303555 
-0.0 -0.0 -1000.0 1:0.1608585 2:0.2421895 3:0.2004703 4:0.1313921 5:0.0637178 6:0.0858813 7:0.0410337 8:0.0745388 
