svm_type c_svc
kernel_type rbf
gamma 0.5
nr_class 4
total_sv 44
rho -57.542791562073134 -48.41261749757239 -1.434753044391883 -0.24620851374456892 15.82545783800735 0.066381527169239
label 4 2 3 1
nr_sv 12 13 10 9
SV
10000.0 0.0 0.0 1:0.294901 2:0.280778 3:0.1521931 4:0.0903997 5:0.0436692 6:0.0565158 7:0.0322729 8:0.0493258 
0.0 1817.9260327832653 0.0 1:0.1828234 2:0.3213512 3:0.2453206 4:0.0970581 5:0.0476138 6:0.0408117 7:0.0363121 8:0.0287847 
10000.0 0.0 0.0 1:0.3182113 2:0.2319122 3:0.1289758 4:0.0823737 5:0.0546939 6:0.0592632 7:0.060678 8:0.0639156 
10000.0 10000.0 1212.9420165110207 1:0.3664814 2:0.1496851 3:0.0859968 4:0.0708161 5:0.0742648 6:0.079873 7:0.0921795 8:0.0807335 
0.0 4195.893114409848 0.0 1:0.1098212 2:0.1244439 3:0.2746791 4:0.2093383 5:0.0862725 6:0.045077 7:0.0747439 8:0.0756446 
4778.569081040354 0.0 1105.0211133278424 1:0.4643624 2:0.1159732 3:0.1154382 4:0.0944076 5:0.0515678 6:0.070692 7:0.055977 8:0.031616 
10000.0 0.0 0.0 1:0.3419015 2:0.2180998 3:0.1943649 4:0.0843864 5:0.0394307 6:0.0672742 7:0.0380376 8:0.0165623 
7585.454858926524 10000.0 0.0 1:0.2603312 2:0.2755715 3:0.1678683 4:0.065239 5:0.0559861 6:0.0800718 7:0.0634638 8:0.031498 
0.0 10000.0 0.0 1:0.1608585 2:0.2421895 3:0.2004703 4:0.1313921 5:0.0637178 6:0.0858813 7:0.0410337 8:0.0745388 
0.0 10000.0 0.0 1:0.2008191 2:0.2299306 3:0.1594772 4:0.1227493 5:0.090131 6:0.0749263 7:0.0536131 8:0.068417 
0.0 10000.0 0.0 1:0.2395384 2:0.2367296 3:0.166475 4:0.0935357 5:0.0729593 6:0.0809433 7:0.0551545 8:0.054722 
0.0 10000.0 0.0 1:0.215057 2:0.1947023 3:0.122169 4:0.1487119 5:0.0968106 6:0.0979562 7:0.0424681 8:0.0821602 
-9919.562288508494 108.15656847693792 0.0 1:0.3310016 2:0.2832054 3:0.1166524 4:0.1008176 5:0.0433243 6:0.0453615 7:0.0409097 8:0.0388164 
-274.67271887548134 0.0 0.0 1:0.3016586 2:0.3225371 3:0.190163 4:0.0631458 5:0.0324505 6:0.0349446 7:0.0294199 8:0.0257635 
-0.0 0.0 9830.92207267104 1:0.4696597 2:0.2187782 3:0.0740987 4:0.0792123 5:0.0296605 6:0.0337546 7:0.0549525 8:0.0399278 
-0.0 0.0 10000.0 1:0.436653 2:0.1551722 3:0.080742 4:0.0548373 5:0.0627995 6:0.0933501 7:0.0660235 8:0.0504814 
-0.0 0.0 10000.0 1:0.4398709 2:0.1863425 3:0.1220462 4:0.0576868 5:0.0261786 6:0.0577969 7:0.0472472 8:0.062904 
-0.0 0.0 10000.0 1:0.4838439 2:0.1614496 3:0.1210326 4:0.0371701 5:0.0351567 6:0.0467701 7:0.0473725 8:0.0672237 
-2424.821085166171 0.0 0.0 1:0.3411293 2:0.2258267 3:0.1231586 4:0.0648976 5:0.0511072 6:0.0876336 7:0.0658759 8:0.0404337 
-10000.0 0.0 0.0 1:0.3096928 2:0.2526609 3:0.1681409 4:0.0745879 5:0.0459565 6:0.0687356 7:0.047748 8:0.0325221 
-10000.0 609.744960885413 0.0 1:0.2758915 2:0.2280568 3:0.2070975 4:0.0601165 5:0.0516641 6:0.0864564 7:0.0525163 8:0.0382432 
-10000.0 0.0 0.0 1:0.3585313 2:0.1847351 3:0.1195193 4:0.0885583 5:0.0598059 6:0.062028 7:0.0696411 8:0.0572589 
-6427.976543258191 0.0 3453.8221688439894 1:0.3896553 2:0.1384365 3:0.0972205 4:0.0755544 5:0.0662318 6:0.0727313 7:0.071949 8:0.0882682 
-0.0 0.0 8546.118239582256 1:0.4458898 2:0.2152 3:0.1157098 4:0.0421674 5:0.0414049 6:0.0475717 7:0.0448673 8:0.047208 
-3316.9913041585396 0.0 0.0 1:0.3885055 2:0.1445261 3:0.1073686 4:0.0867087 5:0.0819142 6:0.0727737 7:0.0671357 8:0.0511204 
-5861.125471013906 -0.0 0.0 1:0.0972838 2:0.289671 3:0.2635667 4:0.1379998 5:0.0502822 6:0.0630133 7:0.0416004 8:0.0566173 
-10000.0 -0.0 0.0 1:0.2392892 2:0.2389927 3:0.146765 4:0.0933314 5:0.0644398 6:0.0852475 7:0.0659419 8:0.066024 
-9755.016014936497 -86.67719462725391 0.0 1:0.2913818 2:0.1548652 3:0.1400405 4:0.1035973 5:0.0859175 6:0.0773026 7:0.0641853 8:0.0827587 
-10000.0 -631.2243347350969 0.0 1:0.2422392 2:0.248412 3:0.1812845 4:0.0747437 5:0.0730605 6:0.0795503 7:0.0443767 8:0.0563614 
-671.2472208938668 -0.0 0.0 1:0.1776213 2:0.2461396 3:0.2297836 4:0.1167901 5:0.0580854 6:0.0747096 7:0.0479149 8:0.0489842 
-10000.0 -0.0 0.0 1:0.1783119 2:0.2492113 3:0.183665 4:0.1323416 5:0.0694888 6:0.0731581 7:0.057233 8:0.0566466 
-3565.2183575470253 -0.0 0.0 1:0.1064471 2:0.2006813 3:0.163378 4:0.1883694 5:0.094457 6:0.0771773 7:0.0893136 8:0.0802147 
-372.2088412372344 -0.0 0.0 1:0.1936631 2:0.2658176 3:0.1871659 4:0.0820767 5:0.0545727 6:0.0916007 7:0.0555816 8:0.0695983 
-5789.003241564576 -0.0 0.0 1:0.2277872 2:0.2326323 3:0.1575772 4:0.0898964 5:0.0562949 6:0.0999158 7:0.0771208 8:0.0588018 
-10000.0 -0.0 126.0591288012807 1:0.327848 2:0.1474676 3:0.0897853 4:0.1206469 5:0.1121756 6:0.0840675 7:0.0528228 8:0.0652063 
-0.0 -1034.8771098811942 -0.0 1:0.4459166 2:0.1520935 3:0.0808558 4:0.0731252 5:0.0475093 6:0.0455088 7:0.0721046 8:0.0829838 
-0.0 -10000.0 -0.0 1:0.4385149 2:0.2197919 3:0.1128086 4:0.0585599 5:0.0237315 6:0.0381919 7:0.047763 8:0.0606935 
-1196.9284410848172 -2953.1783452062755 -105.46878209006296 1:0.4266328 2:0.129328 3:0.0693694 4:0.0820016 5:0.058239 6:0.0790573 7:0.0874789 8:0.0679291 
-403.36988562875626 -0.0 -0.0 1:0.4409074 2:0.0709685 3:0.0889024 4:0.0604392 5:0.0790111 6:0.0920887 7:0.071358 8:0.0963483 
-717.6648031252902 -10000.0 -20.590346711217727 1:0.4217333 2:0.1943597 3:0.1035775 4:0.0509922 5:0.0426305 6:0.0777698 7:0.0623315 8:0.0466186 
-0.0 -7420.437241849402 -0.0 1:0.4467716 2:0.2281537 3:0.1351917 4:0.0351515 5:0.0236073 6:0.0392414 7:0.0409871 8:0.0509165 
-0.0 -9320.039053187713 -0.0 1:0.4556537 2:0.1907181 3:0.077886 4:0.0598764 5:0.0378299 6:0.0574409 7:0.0510142 8:0.0695936 
-0.0 -1742.643625705804 -0.0 1:0.4710086 2:0.0953887 3:0.0748165 4:0.0679821 5:0.0688586 6:0.0856619 7:0.079674 8:0.05664 
-0.0 -9359.687105266914 -0.0 1:0.5011186 2:0.1249006 3:0.1045999 4:0.0540447 5:0.0491345 6:0.0636875 7:0.052416 8:0.0501116 
