svm_type c_svc
kernel_type rbf
gamma 0.1
nr_class 4
total_sv 66
rho 0.38135823468735075 3.141497356134437 -2.4336475353063625 8.325539803574086 -0.04320222245813501 1.2403277364847423
label 2 3 4 1
nr_sv 16 17 23 10
SV
0.0 1000.0 0.0 1:0.3408986 2:0.302002 3:0.1187734 4:0.1221927 5:0.0681956 6:0.0480553 
0.0 1000.0 0.0 1:0.3149058 2:0.3183044 3:0.149301 4:0.120581 5:0.0493601 6:0.0476226 
0.0 114.81237470058943 0.0 1:0.3359275 2:0.3092669 3:0.1487081 4:0.1034173 5:0.0486408 6:0.0540725 
0.0 742.932504690469 1000.0 1:0.3189149 2:0.2110831 3:0.1591655 4:0.1446642 5:0.0904874 6:0.0757872 
0.0 1000.0 661.4583873950123 1:0.2889984 2:0.2524571 3:0.1926739 4:0.1573607 5:0.0657713 6:0.0428238 
0.0 837.1540458615875 1000.0 1:0.3315624 2:0.2208759 3:0.1507246 4:0.1040601 5:0.0747632 6:0.1180495 
0.0 0.0 1000.0 1:0.4363442 2:0.2597408 3:0.0845093 4:0.0758156 5:0.0765202 6:0.0671369 
0.0 0.0 1000.0 1:0.3796614 2:0.219586 3:0.2331668 4:0.0776707 5:0.0511396 6:0.038837 
0.0 0.0 1000.0 1:0.4752648 2:0.2681571 3:0.0862747 4:0.0801322 5:0.0385834 6:0.0516304 
0.0 0.0 10.822610424504758 1:0.4648411 2:0.268002 3:0.1156448 4:0.0784097 5:0.0339729 6:0.0392677 
0.0 0.0 1000.0 1:0.4035781 2:0.2569479 3:0.0784085 4:0.1126073 5:0.1053615 6:0.0431705 
0.0 0.0 1000.0 1:0.4620526 2:0.2407815 3:0.0697453 4:0.1067746 5:0.0791703 6:0.0415055 
1000.0 1000.0 0.0 1:0.2564116 2:0.2957595 3:0.1721604 4:0.1124202 5:0.0874347 6:0.0758957 
510.2868468200502 1000.0 0.0 1:0.2596941 2:0.2805629 3:0.2302502 4:0.1318947 5:0.0635288 6:0.0541251 
0.0 1000.0 0.0 1:0.2703064 2:0.2801853 3:0.1625825 4:0.1180275 5:0.087459 6:0.08107009 
0.0 1000.0 0.0 1:0.3033593 2:0.3871622 3:0.1231331 4:0.0887248 5:0.0500987 6:0.04747835 
-0.0 236.44811482764302 0.0 1:0.1226413 2:0.1981013 3:0.2328317 4:0.1494819 5:0.1673278 6:0.1297054 
-0.0 1000.0 0.0 1:0.1585318 2:0.2979694 3:0.2101736 4:0.1725809 5:0.0772375 6:0.0835329 
-0.0 1000.0 0.0 1:0.1442625 2:0.1788909 3:0.2484607 4:0.1936513 5:0.1271566 6:0.1076329 
-0.0 1000.0 0.0 1:0.1714033 2:0.2801137 3:0.2244281 4:0.1486856 5:0.0919981 6:0.0833956 
-0.0 1000.0 0.0 1:0.1350052 2:0.1981844 3:0.2434699 4:0.2105986 5:0.1206642 6:0.0921196 
-0.0 1000.0 0.0 1:0.1645091 2:0.2539713 3:0.2009884 4:0.1543613 5:0.1164112 6:0.1097905 
-0.0 1000.0 315.3831419052777 1:0.2046385 2:0.1962631 3:0.2062463 4:0.1839117 5:0.1033022 6:0.10566 
-0.0 26.664314563149212 0.0 1:0.082099 2:0.1026914 3:0.2091084 4:0.3039945 5:0.2103254 6:0.0919141 
-503.00085189482934 1000.0 0.0 1:0.1939042 2:0.240128 3:0.250399 4:0.1688261 5:0.0674636 6:0.0793279 
-0.0 1000.0 0.0 1:0.1343194 2:0.203994 3:0.2528572 4:0.186784 5:0.1127141 6:0.1094018 
-0.0 1000.0 0.0 1:0.1338121 2:0.1612224 3:0.3041905 4:0.164651 5:0.1014743 6:0.1347182 
-0.0 1000.0 0.0 1:0.1242877 2:0.1937292 3:0.3035889 4:0.2046004 5:0.077279 6:0.0965492 
-0.0 1000.0 0.0 1:0.0951106 2:0.1663289 3:0.3643614 4:0.2026647 5:0.0901786 6:0.081396 
-146.4601120240636 1000.0 141.37811700105252 1:0.1966301 2:0.2514547 3:0.1819207 4:0.145336 5:0.097665 6:0.1270326 
-0.0 736.8875706092077 0.0 1:0.1372143 2:0.2887049 3:0.2957297 4:0.1428656 5:0.0991733 6:0.0363237 
-860.8258829011572 1000.0 0.0 1:0.179289 2:0.3148 3:0.174084 4:0.1299787 5:0.1184651 6:0.0833036 
-0.0 1000.0 0.0 1:0.1728712 2:0.2773228 3:0.1796592 4:0.1138545 5:0.1263099 6:0.1297546 
-222.21914363884417 -0.0 0.0 1:0.2822479 2:0.3220671 3:0.0922564 4:0.0943337 5:0.1193857 6:0.0897591 
-974.1548043054581 -1000.0 0.0 1:0.2375279 2:0.2926495 3:0.1943245 4:0.1430396 5:0.0666531 6:0.0658402 
-1000.0 -0.0 42.155039808433614 1:0.2990732 2:0.2883101 3:0.1105759 4:0.1358442 5:0.0853205 6:0.0809405 
-1000.0 -0.0 0.0 1:0.2958739 2:0.2938458 3:0.107462 4:0.1330058 5:0.0823417 6:0.0875218 
-0.0 -1000.0 0.0 1:0.2166089 2:0.3240476 3:0.2104308 4:0.115055 5:0.0595956 6:0.0742865 
-1000.0 -0.0 1000.0 1:0.3219439 2:0.2861491 3:0.1098395 4:0.0957791 5:0.0959339 6:0.0904108 
-0.0 -1000.0 0.0 1:0.1083522 2:0.1350826 3:0.2266004 4:0.2519487 5:0.1933394 6:0.0848169 
-0.0 -1000.0 0.0 1:0.1626926 2:0.1781037 3:0.2433746 4:0.2007786 5:0.1367238 6:0.0783417 
-0.0 -1000.0 0.0 1:0.1326178 2:0.2446671 3:0.2928228 4:0.1807931 5:0.0817545 6:0.0673862 
-0.0 -1000.0 0.0 1:0.2019015 2:0.2477746 3:0.197063 4:0.1438625 5:0.1016434 6:0.1078324 
-1000.0 -0.0 0.0 1:0.2826779 2:0.3159866 3:0.1709788 4:0.1283515 5:0.0475326 6:0.0544952 
-0.0 -1000.0 0.0 1:0.1882363 2:0.2695088 3:0.2538466 4:0.1407935 5:0.0862397 6:0.0613983 
-1000.0 -0.0 554.2222847211758 1:0.2580334 2:0.2225027 3:0.2091835 4:0.1516084 5:0.0777803 6:0.0809601 
-0.0 -1000.0 0.0 1:0.203214 2:0.2259665 3:0.1987543 4:0.1366659 5:0.0948054 6:0.140644 
-0.0 -1000.0 0.0 1:0.1330337 2:0.2261092 3:0.2499294 4:0.1735782 5:0.097283 6:0.1201249 
-0.0 -1000.0 0.0 1:0.0889394 2:0.144574 3:0.2769367 4:0.2393986 5:0.0979905 6:0.1521943 
-0.0 -1000.0 0.0 1:0.0893566 2:0.1761864 3:0.304008 4:0.2104247 5:0.089496 6:0.130558 
-0.0 -1000.0 0.0 1:0.1146476 2:0.1502248 3:0.2027779 4:0.1711628 5:0.1857671 6:0.1754723 
-498.5249773083438 -1000.0 0.0 1:0.175708 2:0.2566465 3:0.3775025 4:0.1136715 5:0.0363063 6:0.0401906 
-1000.0 -0.0 1000.0 1:0.3434263 2:0.2569541 3:0.1846916 4:0.1114694 5:0.0568495 6:0.0470288 
-0.0 -1000.0 0.0 1:0.159464 2:0.2695034 3:0.2701224 4:0.1556924 5:0.0807246 6:0.0645365 
-0.0 -1000.0 0.0 1:0.234867 2:0.2778374 3:0.1287879 4:0.1393266 5:0.1248538 6:0.09427158 
-1000.0 -0.0 0.0 1:0.2996402 2:0.3826927 3:0.1007989 4:0.0939415 5:0.0740599 6:0.04884033 
-178.8043354461852 -0.0 -0.0 1:0.4619122 2:0.1899875 3:0.1408381 4:0.084717 5:0.0598434 6:0.0627312 
-1000.0 -0.0 -0.0 1:0.438776 2:0.2196836 3:0.1133815 4:0.1005823 5:0.0668147 6:0.060769 
-1000.0 -0.0 -0.0 1:0.4845852 2:0.2214821 3:0.0914502 4:0.0768178 5:0.0697904 6:0.0558907 
-1000.0 -0.0 -0.0 1:0.3847306 2:0.1966308 3:0.1016272 4:0.1064796 5:0.1138272 6:0.0967286 
-0.0 -0.0 -6.742685661035365 1:0.3326138 2:0.1262313 3:0.1235529 4:0.1664792 5:0.1681414 6:0.0830018 
-1000.0 -0.0 -0.0 1:0.3763123 2:0.2033623 3:0.1246531 4:0.1711773 5:0.0735711 6:0.050941 
-1000.0 -3.0860050525853437 -1000.0 1:0.3665563 2:0.3163358 3:0.1954994 4:0.081777 5:0.0255556 6:0.014341 
-1000.0 -0.0 -589.634638868574 1:0.3642268 2:0.2213775 3:0.1371176 4:0.1069647 5:0.0871667 6:0.0831464 
-493.47666237333186 -453.67525385374483 -1000.0 1:0.3272788 2:0.1822929 3:0.1467165 4:0.1257909 5:0.1186205 6:0.09912256 
-1000.0 -0.0 -0.0 1:0.3756373 2:0.2318721 3:0.1333938 4:0.1216533 5:0.0707412 6:0.06661421 
