svm_type c_svc
kernel_type rbf
gamma 0.1
nr_class 4
total_sv 50
rho 0.15430152758559212 -0.09509139187470679 -1.8930848679899095 7.715775578715841 0.11962171892577077 -0.08478032697445968
label 2 3 4 1
nr_sv 11 16 17 6
SV
0.0 1000.0 0.0 1:0.3408986 2:0.302002 3:0.1187734 4:0.1221927 5:0.0681956 6:0.0480553 
0.0 1000.0 0.0 1:0.3149058 2:0.3183044 3:0.149301 4:0.120581 5:0.0493601 6:0.0476226 
0.0 150.26857243312867 0.0 1:0.3359275 2:0.3092669 3:0.1487081 4:0.1034173 5:0.0486408 6:0.0540725 
0.0 467.732209259195 1000.0 1:0.3189149 2:0.2110831 3:0.1591655 4:0.1446642 5:0.0904874 6:0.0757872 
768.311378482737 1000.0 0.0 1:0.2889984 2:0.2524571 3:0.1926739 4:0.1573607 5:0.0657713 6:0.0428238 
0.0 1000.0 404.4996226842324 1:0.3315624 2:0.2208759 3:0.1507246 4:0.1040601 5:0.0747632 6:0.1180495 
0.0 0.0 515.8144795882284 1:0.4363442 2:0.2597408 3:0.0845093 4:0.0758156 5:0.0765202 6:0.0671369 
0.0 0.0 149.40560357802747 1:0.3796614 2:0.219586 3:0.2331668 4:0.0776707 5:0.0511396 6:0.038837 
0.0 0.0 892.3328203689608 1:0.4752648 2:0.2681571 3:0.0862747 4:0.0801322 5:0.0385834 6:0.0516304 
0.0 0.0 239.49911114284745 1:0.4035781 2:0.2569479 3:0.0784085 4:0.1126073 5:0.1053615 6:0.0431705 
0.0 0.0 1000.0 1:0.4620526 2:0.2407815 3:0.0697453 4:0.1067746 5:0.0791703 6:0.0415055 
-0.0 949.292271426367 0.0 1:0.1226413 2:0.1981013 3:0.2328317 4:0.1494819 5:0.1673278 6:0.1297054 
-0.0 117.93366803625246 0.0 1:0.1229571 2:0.1912579 3:0.2204712 4:0.1547133 5:0.147318 6:0.163407 
-0.0 1000.0 0.0 1:0.1585318 2:0.2979694 3:0.2101736 4:0.1725809 5:0.0772375 6:0.0835329 
-0.0 1000.0 0.0 1:0.1714033 2:0.2801137 3:0.2244281 4:0.1486856 5:0.0919981 6:0.0833956 
-0.0 1000.0 0.0 1:0.1350052 2:0.1981844 3:0.2434699 4:0.2105986 5:0.1206642 6:0.0921196 
-0.0 1000.0 0.0 1:0.1645091 2:0.2539713 3:0.2009884 4:0.1543613 5:0.1164112 6:0.1097905 
-68.41496224510584 1000.0 317.92221914310693 1:0.2046385 2:0.1962631 3:0.2062463 4:0.1839117 5:0.1033022 6:0.10566 
-0.0 144.56767401103568 0.0 1:0.1017938 2:0.1404693 3:0.1946965 4:0.2201952 5:0.2247586 6:0.1181872 
-0.0 39.001864303040115 0.0 1:0.1360881 2:0.271197 3:0.1583088 4:0.1715171 5:0.1643279 6:0.0985849 
-0.0 273.0271013485435 0.0 1:0.1241191 2:0.2237779 3:0.2296079 4:0.2228123 5:0.1159587 6:0.0837929 
-482.601494265661 1000.0 0.0 1:0.1939042 2:0.240128 3:0.250399 4:0.1688261 5:0.0674636 6:0.0793279 
-0.0 1000.0 0.0 1:0.1343194 2:0.203994 3:0.2528572 4:0.186784 5:0.1127141 6:0.1094018 
-0.0 1000.0 0.0 1:0.1338121 2:0.1612224 3:0.3041905 4:0.164651 5:0.1014743 6:0.1347182 
-0.0 1000.0 0.0 1:0.1242877 2:0.1937292 3:0.3035889 4:0.2046004 5:0.077279 6:0.0965492 
-217.29492197197035 1000.0 0.0 1:0.1966301 2:0.2514547 3:0.1819207 4:0.145336 5:0.097665 6:0.1270326 
-0.0 1000.0 0.0 1:0.1442625 2:0.1788909 3:0.2484607 4:0.1936513 5:0.1271566 6:0.1076329 
-0.0 -1000.0 0.0 1:0.2375279 2:0.2926495 3:0.1943245 4:0.1430396 5:0.0666531 6:0.0658402 
-1000.0 -0.0 0.0 1:0.2990732 2:0.2883101 3:0.1105759 4:0.1358442 5:0.0853205 6:0.0809405 
-618.0007816923236 -0.0 0.0 1:0.2958739 2:0.2938458 3:0.107462 4:0.1330058 5:0.0823417 6:0.0875218 
-0.0 -1000.0 0.0 1:0.2166089 2:0.3240476 3:0.2104308 4:0.115055 5:0.0595956 6:0.0742865 
-1000.0 -0.0 714.2775802047532 1:0.3219439 2:0.2861491 3:0.1098395 4:0.0957791 5:0.0959339 6:0.0904108 
-0.0 -1000.0 0.0 1:0.1083522 2:0.1350826 3:0.2266004 4:0.2519487 5:0.1933394 6:0.0848169 
-0.0 -1000.0 0.0 1:0.1626926 2:0.1781037 3:0.2433746 4:0.2007786 5:0.1367238 6:0.0783417 
-0.0 -1000.0 0.0 1:0.2019015 2:0.2477746 3:0.197063 4:0.1438625 5:0.1016434 6:0.1078324 
-1000.0 -0.0 0.0 1:0.2826779 2:0.3159866 3:0.1709788 4:0.1283515 5:0.0475326 6:0.0544952 
-0.0 -1000.0 0.0 1:0.1882363 2:0.2695088 3:0.2538466 4:0.1407935 5:0.0862397 6:0.0613983 
-1000.0 -523.8225791252385 134.68307073674083 1:0.2580334 2:0.2225027 3:0.2091835 4:0.1516084 5:0.0777803 6:0.0809601 
-0.0 -1000.0 0.0 1:0.1330337 2:0.2261092 3:0.2499294 4:0.1735782 5:0.097283 6:0.1201249 
-0.0 -1000.0 0.0 1:0.0889394 2:0.144574 3:0.2769367 4:0.2393986 5:0.0979905 6:0.1521943 
-0.0 -1000.0 0.0 1:0.0893566 2:0.1761864 3:0.304008 4:0.2104247 5:0.089496 6:0.130558 
-0.0 -1000.0 0.0 1:0.1146476 2:0.1502248 3:0.2027779 4:0.1711628 5:0.1857671 6:0.1754723 
-0.0 -1000.0 0.0 1:0.203214 2:0.2259665 3:0.1987543 4:0.1366659 5:0.0948054 6:0.140644 
-0.0 -1000.0 0.0 1:0.1326178 2:0.2446671 3:0.2928228 4:0.1807931 5:0.0817545 6:0.0673862 
-201.55163736229656 -0.0 -0.0 1:0.4619122 2:0.1899875 3:0.1408381 4:0.084717 5:0.0598434 6:0.0627312 
-1000.0 -0.0 -0.0 1:0.438776 2:0.2196836 3:0.1133815 4:0.1005823 5:0.0668147 6:0.060769 
-1000.0 -0.0 -0.0 1:0.4845852 2:0.2214821 3:0.0914502 4:0.0768178 5:0.0697904 6:0.0558907 
-1000.0 -0.0 -573.5347854515652 1:0.3847306 2:0.1966308 3:0.1016272 4:0.1064796 5:0.1138272 6:0.0967286 
-0.0 -221.65647646801582 -0.0 1:0.3326138 2:0.1262313 3:0.1235529 4:0.1664792 5:0.1681414 6:0.0830018 
-1000.0 -96.26574267509118 -275.4258654899288 1:0.3763123 2:0.2033623 3:0.1246531 4:0.1711773 5:0.0735711 6:0.050941 
