svm_type c_svc
kernel_type rbf
gamma 0.1
nr_class 4
total_sv 54
rho -1.5845962042159343 -4.367951033371691 0.2986314365516913 -0.24574374889341105 1.6608523074641066 -2.8421709430404007E-14
label 4 2 3 1
nr_sv 16 18 12 8
SV
1000.0 0.0 0.0 1:0.260782 2:0.3072874 3:0.1595554 4:0.1389688 5:0.075588 6:0.0579106 
1000.0 0.0 0.0 1:0.2991349 2:0.2983023 3:0.1577399 4:0.1243369 5:0.0622216 6:0.0583329 
0.0 1000.0 0.0 1:0.1438459 2:0.3190163 3:0.2478644 4:0.1626348 5:0.0682896 6:0.0584416 
0.0 1000.0 0.0 1:0.1438459 2:0.3190163 3:0.2478644 4:0.1626348 5:0.0682896 6:0.0584416 
1000.0 0.0 215.57732722956573 1:0.3245267 2:0.2829165 3:0.1305769 4:0.1352939 5:0.062886 6:0.0638269 
1000.0 746.345214071323 1000.0 1:0.3869797 2:0.2139781 3:0.1025059 4:0.1012844 5:0.1056868 6:0.089609 
0.0 1000.0 0.0 1:0.1175267 2:0.1273644 3:0.2756716 4:0.2493318 5:0.1640863 6:0.0660568 
990.4298215904554 0.0 0.0 1:0.232345 2:0.3167505 3:0.2005984 4:0.1209687 5:0.0702623 6:0.0591963 
1000.0 0.0 1000.0 1:0.4630154 2:0.166701 3:0.0747025 4:0.140029 5:0.0795332 6:0.0760716 
1000.0 907.7325388032796 0.0 1:0.3155758 2:0.2506687 3:0.1519449 4:0.1533131 5:0.0531418 6:0.0754201 
1000.0 1000.0 0.0 1:0.2408394 2:0.331787 3:0.1359515 4:0.1259463 5:0.0745843 6:0.0909286 
0.0 1000.0 0.0 1:0.1645039 2:0.2611124 3:0.1940882 4:0.2004897 5:0.076771 6:0.1031367 
0.0 1000.0 0.0 1:0.1982925 2:0.2437094 3:0.20807 4:0.1787175 5:0.0697414 6:0.1015476 
0.0 1000.0 0.0 1:0.1723962 2:0.3080989 3:0.149256 4:0.1602482 5:0.1028307 6:0.1072315 
99.26962109014771 1000.0 0.0 1:0.2444698 2:0.2610536 3:0.1324868 4:0.1821376 5:0.0690154 6:0.1109421 
0.0 1000.0 0.0 1:0.222313 2:0.2092456 3:0.1356814 4:0.1905348 5:0.110892 6:0.1314255 
-1000.0 0.0 0.0 1:0.3229291 2:0.3301479 3:0.0863192 4:0.1457034 5:0.0544459 6:0.0605327 
-1000.0 0.0 0.0 1:0.2614997 2:0.3730553 3:0.165516 4:0.1224777 5:0.0340584 6:0.0434595 
-0.0 0.0 62.61818206494948 1:0.4165027 2:0.2562849 3:0.1075394 4:0.0958938 5:0.0512278 6:0.0725942 
-313.2102552315957 0.0 0.0 1:0.3580832 2:0.3149231 3:0.1194401 4:0.1120482 5:0.0530466 6:0.0424963 
-0.0 0.0 1000.0 1:0.4570914 2:0.2568345 3:0.0937191 4:0.0818638 5:0.0690193 6:0.0415467 
-0.0 0.0 1000.0 1:0.4484589 2:0.1906934 3:0.076771 4:0.0881652 5:0.0620201 6:0.1339695 
-0.0 0.0 1000.0 1:0.4363761 2:0.2363155 3:0.1265793 4:0.0950427 5:0.0433917 6:0.0623493 
-0.0 0.0 1000.0 1:0.4871868 2:0.2117462 3:0.1389461 4:0.0792119 5:0.0387728 6:0.0441679 
-1000.0 538.7393698374797 0.0 1:0.3023166 2:0.2916042 3:0.1454541 4:0.1259574 5:0.057644 6:0.0770706 
-1000.0 1000.0 0.0 1:0.2683794 2:0.2657642 3:0.1860303 4:0.1307941 5:0.0552536 6:0.0938219 
-1000.0 0.0 0.0 1:0.3610305 2:0.2417349 3:0.1125675 4:0.1267593 5:0.072162 6:0.0858265 
-1000.0 0.0 0.0 1:0.2974602 2:0.2630936 3:0.2092058 4:0.0848417 5:0.0528341 6:0.0926394 
-0.0 0.0 1000.0 1:0.4525907 2:0.1966162 3:0.1168088 4:0.1018641 5:0.0596828 6:0.0724841 
-1000.0 833.6241072354808 0.0 1:0.3834116 2:0.2060816 3:0.0935703 4:0.1338206 5:0.0882907 6:0.0948713 
-0.0 0.0 535.1287891888009 1:0.4327243 2:0.2515008 3:0.1478208 4:0.0658462 5:0.0452737 6:0.0568759 
-776.4891874490071 362.64737837166376 0.0 1:0.3850111 2:0.1996781 3:0.097354 4:0.1200751 5:0.0819861 6:0.1159447 
-0.0 0.0 1000.0 1:0.480641 2:0.1890958 3:0.090375 4:0.1020417 5:0.0664873 6:0.0714272 
-0.0 0.0 1000.0 1:0.4498532 2:0.2007911 3:0.0857881 4:0.1087851 5:0.0782884 6:0.0765509 
-1000.0 -964.0080286636896 0.0 1:0.2363818 2:0.2987611 3:0.1389187 4:0.1459197 5:0.0808254 6:0.0992386 
-1000.0 -771.0028267809348 0.0 1:0.3047995 2:0.199008 3:0.1291083 4:0.1506478 5:0.1133575 6:0.1031365 
-1000.0 -0.0 0.0 1:0.2213573 2:0.2782655 3:0.1483098 4:0.1755802 5:0.074571 6:0.101945 
-1000.0 -0.0 0.0 1:0.1562032 2:0.2585715 3:0.2212353 4:0.1984517 5:0.0788096 6:0.0867632 
-1000.0 -0.0 0.0 1:0.1687274 2:0.2631661 3:0.1727125 4:0.2091631 5:0.0831152 6:0.1032015 
-1000.0 -0.0 0.0 1:0.2377179 2:0.2590597 3:0.1594685 4:0.1440427 5:0.0900956 6:0.1096609 
-561.4883329079015 -0.0 0.0 1:0.1367731 2:0.2829068 3:0.2789387 4:0.1341103 5:0.0712827 6:0.0960267 
-245.93113595850076 -0.0 0.0 1:0.177841 2:0.2979379 3:0.1555965 4:0.1344146 5:0.0993732 6:0.1348883 
-1000.0 -0.0 0.0 1:0.133439 2:0.2880658 3:0.185713 4:0.1995303 5:0.0858063 6:0.107491 
-1000.0 -1000.0 658.9895911072565 1:0.3291823 2:0.1957813 3:0.1151683 4:0.1123441 5:0.1231249 6:0.1244352 
-1000.0 -0.0 0.0 1:0.1526051 2:0.2558694 3:0.2552216 4:0.2028119 5:0.0558749 6:0.0776533 
-846.6582840082001 -0.0 0.0 1:0.135468 2:0.2213449 3:0.269877 4:0.205797 5:0.1032737 6:0.0642652 
-0.0 -1000.0 -0.0 1:0.4700712 2:0.2121215 3:0.1063069 4:0.0938028 5:0.0621441 6:0.0556239 
-392.51505465014463 -1000.0 -0.0 1:0.4456153 2:0.2633271 3:0.1068101 4:0.1066379 5:0.0368887 6:0.040763 
-1000.0 -1000.0 -658.9895911072565 1:0.4345613 2:0.1999881 3:0.0719031 4:0.1063784 5:0.0799954 6:0.1072222 
-308.1998175023967 -1000.0 -0.0 1:0.4936952 2:0.0953454 3:0.1124948 4:0.1065816 5:0.0709758 6:0.1209287 
-514.8624550770243 -1000.0 -0.0 1:0.4359812 2:0.2454375 3:0.1051858 4:0.0834616 5:0.0528464 6:0.0771135 
-0.0 -1000.0 -0.0 1:0.4557765 2:0.2575683 3:0.134511 4:0.0809314 5:0.0325195 6:0.0387173 
-0.0 -1000.0 -0.0 1:0.4790784 2:0.2313724 3:0.0916035 4:0.0856533 5:0.048267 6:0.064048 
-0.0 -597.7469712537506 -0.0 1:0.53469 2:0.1655895 3:0.1070188 4:0.0829348 5:0.0506847 6:0.0591084 
