svm_type c_svc
kernel_type rbf
gamma 0.1
nr_class 4
total_sv 44
rho 0.14790459434064934 0.6359776114496427 -0.38276279978861827 3.0910448262717094 -0.01841391720202819 -0.270021915435791
label 2 3 4 1
nr_sv 10 13 16 5
SV
0.0 1000.0 0.0 1:0.3801213 2:0.3047175 3:0.1145996 4:0.1108233 5:0.0337936 6:0.0560202 
0.0 0.0 305.906585975597 1:0.4903638 2:0.2199938 3:0.0964956 4:0.0735825 5:0.0507406 6:0.0688864 
0.0 1000.0 0.0 1:0.3531441 2:0.303859 3:0.1621435 4:0.092507 5:0.0371628 6:0.0512164 
0.0 660.8096531623783 0.0 1:0.3877026 2:0.2878426 3:0.1373219 4:0.062551 5:0.049161 6:0.0754502 
0.0 68.90488384735018 0.0 1:0.3659849 2:0.2433609 3:0.1815247 4:0.1156308 5:0.0331353 6:0.0604337 
635.2302409873765 1000.0 0.0 1:0.3148918 2:0.274604 3:0.1875849 4:0.1490846 5:0.0365802 6:0.0373157 
0.0 904.9318429912191 1000.0 1:0.392963 2:0.2350461 3:0.1422177 4:0.0783928 5:0.0389796 6:0.1124447 
0.0 0.0 1000.0 1:0.536941 2:0.2014107 3:0.0925594 4:0.064844 5:0.0419267 6:0.0623515 
0.0 0.0 1000.0 1:0.539355 2:0.1665487 3:0.0682088 4:0.0904203 5:0.0652481 6:0.0702657 
0.0 0.0 1000.0 1:0.5563652 2:0.1822503 3:0.0800049 4:0.071029 5:0.0537747 6:0.0565965 
-0.0 1000.0 0.0 1:0.1339941 2:0.1950574 3:0.2568222 4:0.1300158 5:0.123365 6:0.1608468 
-0.0 457.8917164179796 0.0 1:0.1805827 2:0.3142184 3:0.2196516 4:0.1423365 5:0.074737 6:0.0684949 
-0.0 1000.0 0.0 1:0.1689544 2:0.20027 3:0.2362375 4:0.1989624 5:0.1028816 6:0.0927244 
-130.0610986580949 1000.0 0.0 1:0.1888929 2:0.3351591 3:0.2011779 4:0.120384 5:0.0909259 6:0.0634855 
-0.0 1000.0 0.0 1:0.1608793 2:0.214463 3:0.2921785 4:0.1807653 5:0.0811287 6:0.0706147 
-0.0 1000.0 0.0 1:0.1718343 2:0.302872 3:0.2066189 4:0.1051268 5:0.1099967 6:0.1035758 
-488.95346174735806 1000.0 160.65738264141305 1:0.2240005 2:0.2344576 3:0.2151604 4:0.1464769 5:0.082777 6:0.0971467 
-0.0 861.6595007316783 0.0 1:0.0851742 2:0.1050787 3:0.3184345 4:0.301269 5:0.1151427 6:0.0749579 
-0.0 1000.0 0.0 1:0.136714 2:0.2137001 3:0.3098281 4:0.1864592 5:0.0886259 6:0.06472 
-16.215680581923568 1000.0 0.0 1:0.2139685 2:0.2482101 3:0.2823284 4:0.1283821 5:0.0615015 6:0.0656341 
-0.0 1000.0 0.0 1:0.1418486 2:0.2337428 3:0.2529408 4:0.1575782 5:0.1034865 6:0.1104418 
-0.0 461.7534547704858 0.0 1:0.0837352 2:0.2043312 3:0.3895105 4:0.1811395 5:0.0639974 6:0.0773116 
-0.0 1000.0 21.437728216979135 1:0.202283 2:0.3016851 3:0.1504673 4:0.137086 5:0.0918478 6:0.1166771 
-1000.0 -0.0 1000.0 1:0.3692786 2:0.263456 3:0.0968046 4:0.1180957 5:0.0671482 6:0.0852655 
-0.0 -881.9875127094102 0.0 1:0.2743125 2:0.3031929 3:0.19242 4:0.1201549 5:0.0458013 6:0.0641344 
-1000.0 -0.0 0.0 1:0.3573464 2:0.2662674 3:0.1123409 4:0.1390479 5:0.0537234 6:0.071327 
-1000.0 -0.0 0.0 1:0.365833 2:0.2679885 3:0.1002902 4:0.1097516 5:0.0739159 6:0.082254 
-634.6463800009475 -1000.0 0.0 1:0.2467416 2:0.3185441 3:0.2340888 4:0.0780027 5:0.057336 6:0.0653075 
-0.0 -1000.0 0.0 1:0.1095461 2:0.1400045 3:0.3078209 4:0.2394491 5:0.1429233 6:0.0603378 
-0.0 -1000.0 0.0 1:0.1664619 2:0.2047391 3:0.2802516 4:0.1954406 5:0.0903725 6:0.0627532 
-0.0 -1000.0 0.0 1:0.1277042 2:0.2888398 3:0.2996953 4:0.1512797 5:0.0726391 6:0.0598776 
-0.0 -899.317159210733 0.0 1:0.233512 2:0.2517258 3:0.2148657 4:0.1226736 5:0.0856464 6:0.0916243 
-1000.0 -0.0 0.0 1:0.3321202 2:0.3018509 3:0.1788018 4:0.0986534 5:0.0401356 6:0.0484598 
-0.0 -1000.0 0.0 1:0.2083767 2:0.3192476 3:0.2342011 4:0.1281719 5:0.0623274 6:0.0476882 
-0.0 -1000.0 0.0 1:0.2188141 2:0.2464352 3:0.1860691 4:0.1316041 5:0.113687 6:0.1034336 
-0.0 -1000.0 0.0 1:0.1734603 2:0.2127289 3:0.2625538 4:0.1606561 5:0.0863599 6:0.1042884 
-0.0 -1000.0 0.0 1:0.100688 2:0.1670985 3:0.2975279 4:0.2051882 5:0.0959004 6:0.1336146 
-0.0 -1000.0 0.0 1:0.097896 2:0.1892756 3:0.343632 4:0.1682985 5:0.0858668 6:0.1150562 
-0.0 -1000.0 -0.0 1:0.1365847 2:0.1595256 3:0.1773714 4:0.1715293 5:0.200522 6:0.1545081 
-658.9914485963847 -0.0 -0.0 1:0.551203 2:0.1388744 3:0.0980596 4:0.0697118 5:0.0565493 6:0.0856117 
-646.9151373792123 -0.0 -0.0 1:0.4627137 2:0.1707568 3:0.1049788 4:0.0899368 5:0.0638916 6:0.1077306 
-1000.0 -0.0 -0.0 1:0.5810114 2:0.1527594 3:0.0950205 4:0.0633572 5:0.0425629 6:0.0652962 
-1000.0 -0.0 -0.0 1:0.4958605 2:0.1745941 3:0.078363 4:0.0813956 5:0.0670139 6:0.1027851 
-1000.0 -182.0951108583922 -1000.0 1:0.4219734 2:0.2024776 3:0.0971031 4:0.1249683 5:0.05875 6:0.0947466 
