svm_type c_svc
kernel_type rbf
gamma 0.1
nr_class 4
total_sv 74
rho -4.489104973930399 2.879123466949525 -2.878462380267794 2.49640798239354 2.361158969308055 -0.20202994346618652
label 4 2 3 1
nr_sv 19 24 17 14
SV
1000.0 1000.0 0.0 1:0.2409847 2:0.3155107 3:0.1638252 4:0.1426878 5:0.0776108 6:0.0594604 
1000.0 0.0 0.0 1:0.2775212 2:0.3074986 3:0.1626028 4:0.1281701 5:0.0641398 6:0.0601312 
0.0 1000.0 0.0 1:0.1313503 2:0.323671 3:0.251481 4:0.1650078 5:0.069286 6:0.0592943 
1000.0 1000.0 0.0 1:0.271043 2:0.2764749 3:0.1167711 4:0.1274547 5:0.0806223 6:0.1276772 
1000.0 1000.0 1000.0 1:0.3623021 2:0.222592 3:0.1066323 4:0.1053617 5:0.1099413 6:0.0932163 
394.0961075269077 1000.0 0.0 1:0.2140815 2:0.3242804 3:0.2053671 4:0.1238444 5:0.0719326 6:0.0606036 
0.0 1000.0 0.0 1:0.1903824 2:0.3408611 3:0.2027329 4:0.1507864 5:0.062814 6:0.0525193 
1000.0 0.0 1000.0 1:0.4369406 2:0.1747925 3:0.0783285 4:0.1468259 5:0.0833936 6:0.0797641 
1000.0 961.0514763575649 240.28181703084942 1:0.2932734 2:0.2588371 3:0.1568962 4:0.158309 5:0.0548735 6:0.0778778 
0.0 1000.0 0.0 1:0.1710633 2:0.2642266 3:0.1385263 4:0.1265456 5:0.1080519 6:0.1916982 
1000.0 1000.0 0.0 1:0.2221048 2:0.3399753 3:0.1393067 4:0.1290545 5:0.0764249 6:0.0931727 
0.0 1000.0 0.0 1:0.1505265 2:0.2654739 3:0.1973302 4:0.2038386 5:0.0780534 6:0.1048595 
0.0 1000.0 0.0 1:0.1820724 2:0.2486381 3:0.2122779 4:0.1823318 5:0.0711518 6:0.1036013 
1000.0 1000.0 0.0 1:0.2643498 2:0.255408 3:0.1706035 4:0.1421208 5:0.0610879 6:0.1064757 
336.6013653928828 1000.0 0.0 1:0.225542 2:0.267602 3:0.1358102 4:0.1867064 5:0.0707466 6:0.1137251 
0.0 1000.0 0.0 1:0.2046321 2:0.2140044 3:0.1387671 4:0.1948681 5:0.113414 6:0.1344145 
0.0 1000.0 0.0 1:0.1273458 2:0.4252215 3:0.2135965 4:0.1210406 5:0.0448963 6:0.0679298 
0.0 266.7002401770061 0.0 1:0.1599381 2:0.375243 3:0.2594544 4:0.1120757 5:0.0452405 6:0.0481307 
1000.0 0.0 571.9645056749453 1:0.2766137 2:0.42773 3:0.1618998 4:0.0710394 5:0.0368068 6:0.026011 
-1000.0 293.1667344841648 0.0 1:0.300334 2:0.3411641 3:0.0891994 4:0.1505651 5:0.0562627 6:0.0625525 
-0.0 0.0 1000.0 1:0.4067734 2:0.287013 3:0.0985541 4:0.0823936 5:0.0717442 6:0.0535955 
-1000.0 1000.0 0.0 1:0.2416692 2:0.3830723 3:0.1699603 4:0.1257664 5:0.0349729 6:0.0446265 
-0.0 0.0 1000.0 1:0.3911468 2:0.2674253 3:0.112214 4:0.1000622 5:0.0534547 6:0.0757498 
-0.0 0.0 1000.0 1:0.4113769 2:0.2510843 3:0.0831673 4:0.1307996 5:0.0668965 6:0.056723 
-400.5771926450373 0.0 0.0 1:0.334243 2:0.3266181 3:0.1238756 4:0.1162092 5:0.0550166 6:0.0440744 
-0.0 0.0 1000.0 1:0.4771088 2:0.2379909 3:0.1001442 4:0.0816809 5:0.0536531 6:0.0494775 
-0.0 0.0 1000.0 1:0.4106664 2:0.247103 3:0.1323574 4:0.0993813 5:0.0453724 6:0.0651955 
-0.0 0.0 1000.0 1:0.4609207 2:0.222589 3:0.1460611 4:0.0832681 5:0.0407582 6:0.0464296 
-1000.0 1000.0 0.0 1:0.2724697 2:0.2801492 3:0.1264078 4:0.1544911 5:0.0665449 6:0.1000539 
-1000.0 0.0 0.0 1:0.3116794 2:0.2927444 3:0.1473249 4:0.0930106 5:0.0631016 6:0.0922047 
-1000.0 1000.0 0.0 1:0.2805643 2:0.3006918 3:0.149987 4:0.1298827 5:0.0594404 6:0.0794724 
-1000.0 1000.0 0.0 1:0.2482019 2:0.2730926 3:0.1911601 4:0.1344008 5:0.0567772 6:0.0964091 
-1000.0 0.0 0.0 1:0.3370937 2:0.2507862 3:0.1167823 4:0.1315056 5:0.0748639 6:0.0890401 
-1000.0 281.5000589952346 0.0 1:0.2759234 2:0.2711612 3:0.2156209 4:0.0874433 5:0.0544543 6:0.0954801 
-0.0 0.0 1000.0 1:0.4266369 2:0.2059347 3:0.1223449 4:0.1066919 5:0.0625115 6:0.0759194 
-1000.0 1000.0 0.0 1:0.3588301 2:0.214299 3:0.0973014 4:0.1391567 5:0.0918112 6:0.0986542 
-0.0 0.0 1000.0 1:0.3625232 2:0.2317967 3:0.1616126 4:0.0884828 5:0.0667546 6:0.0888809 
-0.0 0.0 1000.0 1:0.4070643 2:0.2628746 3:0.1545058 4:0.068824 5:0.0473211 6:0.059448 
-330.12028027475327 132.50208205873668 797.3838150086325 1:0.3603864 2:0.2076745 3:0.1012527 4:0.1248837 5:0.0852693 6:0.1205878 
-0.0 0.0 1000.0 1:0.4544242 2:0.1986461 3:0.0949394 4:0.1071953 5:0.0698452 6:0.0750346 
-0.0 0.0 1000.0 1:0.4239347 2:0.2102472 3:0.0898282 4:0.1139082 5:0.0819754 6:0.080156 
-0.0 0.0 1000.0 1:0.4928176 2:0.2378752 3:0.0788604 4:0.0504156 5:0.073451 6:0.0667826 
-0.0 0.0 88.09993402065469 1:0.3785283 2:0.3309201 3:0.0964806 4:0.070033 5:0.0701725 6:0.0542519 
-1000.0 -414.5119333222643 0.0 1:0.2191305 2:0.2090926 3:0.201173 4:0.1322368 5:0.0821866 6:0.1562524 
-211.37004828913516 -0.0 0.0 1:0.0937322 2:0.2505106 3:0.3111853 4:0.2126232 5:0.0574733 6:0.0745352 
-1000.0 -0.0 0.0 1:0.2178943 2:0.3059944 3:0.142282 4:0.1494525 5:0.0827822 6:0.1016412 
-1000.0 -1000.0 0.0 1:0.2829434 2:0.2052643 3:0.1331672 4:0.1553838 5:0.1169212 6:0.1063789 
-1000.0 -1000.0 1000.0 1:0.3268802 2:0.2288133 3:0.1160635 4:0.1321896 5:0.090443 6:0.1056656 
-1000.0 -0.0 0.0 1:0.2037311 2:0.2845642 3:0.1516669 4:0.1795545 5:0.076259 6:0.1042525 
-942.1415255033679 -0.0 0.0 1:0.1544618 2:0.2676843 3:0.1756777 4:0.2127541 5:0.0845422 6:0.1049733 
-74.24014274206785 -0.0 0.0 1:0.1807569 2:0.2460723 3:0.1998613 4:0.1526175 5:0.0951428 6:0.1256028 
-1000.0 -0.0 0.0 1:0.2191559 2:0.265368 3:0.1633517 4:0.1475503 5:0.0922895 6:0.1123312 
-1000.0 -0.0 0.0 1:0.1248023 2:0.2868288 3:0.2828057 4:0.1359695 5:0.0722709 6:0.0973579 
-1000.0 -0.0 0.0 1:0.1629553 2:0.3033331 3:0.1584141 4:0.1368486 5:0.1011726 6:0.1373309 
-1000.0 -517.150420714068 0.0 1:0.3063513 2:0.2024473 3:0.1190895 4:0.1161692 5:0.127317 6:0.1286719 
-1000.0 -88.03109432835068 0.0 1:0.1394721 2:0.2598328 3:0.2591749 4:0.2059535 5:0.0567404 6:0.0788562 
-1000.0 -1000.0 379.1479428489623 1:0.2810237 2:0.3504774 3:0.1685178 4:0.0941861 5:0.0565447 6:0.0493173 
-1000.0 -687.4754271734538 0.0 1:0.1856477 2:0.3877272 3:0.1538486 4:0.1572707 5:0.0726944 6:0.0428291 
-1000.0 -1000.0 0.0 1:0.2431432 2:0.3820995 3:0.1141123 4:0.1343648 5:0.0607147 6:0.0655743 
-1000.0 -0.0 0.0 1:0.1372471 2:0.3970021 3:0.1932527 4:0.1557201 5:0.0630502 6:0.053771 
-0.0 -1000.0 -0.0 1:0.4439439 2:0.2225905 3:0.1115535 4:0.0984323 5:0.0652111 6:0.0583692 
-0.0 -1000.0 -0.0 1:0.4197652 2:0.2756128 3:0.1117934 4:0.1116132 5:0.0386098 6:0.0426649 
-0.0 -1000.0 -0.0 1:0.4489109 2:0.2012522 3:0.0795135 4:0.0765619 5:0.088247 6:0.1055513 
-1000.0 -1000.0 -379.1479428489623 1:0.4088722 2:0.2090731 3:0.0751696 4:0.1112109 5:0.0836294 6:0.1120931 
-1000.0 -1000.0 -1000.0 1:0.3652047 2:0.2721088 3:0.1446504 4:0.119457 5:0.0541221 6:0.0444769 
-381.8208228007235 -1000.0 -0.0 1:0.4029051 2:0.3056892 3:0.1282827 4:0.0754408 5:0.0459968 6:0.0417288 
-0.0 -1000.0 -0.0 1:0.4225563 2:0.1996435 3:0.0803742 4:0.0923032 5:0.064931 6:0.1402573 
-0.0 -359.7554430621042 -0.0 1:0.4673988 2:0.1002965 3:0.1183365 4:0.1121163 5:0.0746615 6:0.1272084 
-242.69312911399766 -1000.0 -0.0 1:0.4102686 2:0.256625 3:0.1099803 4:0.087266 5:0.0552552 6:0.0806285 
-0.0 -525.7283059671832 -0.0 1:0.4821107 2:0.2084882 3:0.0821788 4:0.0795028 5:0.063247 6:0.084502 
-0.0 -1000.0 -0.0 1:0.4297856 2:0.269867 3:0.1409338 4:0.0847958 5:0.0340723 6:0.0405661 
-0.0 -1000.0 -0.0 1:0.4528645 2:0.2430137 3:0.0962124 4:0.0899629 5:0.0506955 6:0.0672705 
-187.73237079107378 -1000.0 -0.0 1:0.4003518 2:0.165426 3:0.1865097 4:0.118297 5:0.0723025 6:0.0571172 
-0.0 -1000.0 -0.0 1:0.4902 2:0.2734972 3:0.105022 4:0.0541007 5:0.0461033 6:0.0311376 
